
\data\
ngram 1=344
ngram 2=3796

\1-grams:
-2.992435	"-ақ".postadv	-0.1463145
-3.945858	".".sent	-0.1983811
-2.63176	"да".cnjcoo	-0.4524009
-2.239622	"да".postadv	-0.2342087
-2.505142	"е".cop.aor.p3.pl	-0.664463
-2.012739	"е".cop.aor.p3.sg	-1.208475
-2.327379	"лы".post	-0.2113823
-3.309183	"сыз".post	-0.2103454
-2.58533	"ғана".postadv	-0.2001314
-3.945858	"ғой".mod_ass	-0.1949225
-0.8952802	</s>
-99	<s>
-2.024683	abbr	-0.288309
-3.945858	abbr.dat	-0.1963092
-3.945858	abbr.gen	-0.1980365
-3.945858	abl	-0.1744555
-1.489906	adj	-0.4990824
-3.643465	adj.comp	-0.1764612
-1.824499	adv	-0.1778975
-3.309183	adv.itg	-0.1648878
-3.945858	advj	-0.1858154
-2.104197	advl	-0.3832676
-3.411597	apos	-0.1822549
-1.787897	attr	-0.4211798
-1.486386	cm	-0.4668828
-3.411597	cnjadv	-0.1916164
-1.864471	cnjcoo	-0.2858778
-3.643465	cnjsub	-0.1462745
-2.992435	cop
-3.411597	cop.aor.evid.p3.sg	-0.2279017
-3.945858	cop.aor.p1.sg	-0.259409
-3.945858	cop.ifi.p1.pl	-0.195732
-3.945858	cop.ifi.p1.sg	-0.1896272
-2.469994	cop.ifi.p3.sg	-0.8337579
-2.992435	cop.neg.aor.p3.sg	-0.3002864
-2.166652	det.dem	-0.3674428
-2.469994	det.ind	-0.1245221
-3.411597	det.itg	-0.1911181
-3.411597	det.neg	-0.1833261
-2.183778	det.qnt	-0.2239499
-2.303722	det.ref	-0.2219855
-3.945858	gen	-0.185681
-2.811228	ger.acc	-0.1493351
-2.239622	ger.dat	-0.1932051
-3.12255	ger.gen	-0.1687392
-3.309183	ger.ins	-0.1613093
-2.992435	ger.loc	-0.2760505
-2.012739	ger.nom	-0.2512262
-3.945858	ger.pl.px3sp.dat	-0.194691
-3.945858	ger.px2sg.dat	-0.1855627
-3.411597	ger.px2sg.nom	-0.1775821
-3.309183	ger.px3sp.abl	-0.194591
-3.411597	ger.px3sp.acc	-0.1732571
-2.58533	ger.px3sp.dat	-0.2330053
-3.643465	ger.px3sp.gen	-0.2097404
-3.12255	ger.px3sp.ins	-0.1640691
-3.945858	ger.px3sp.loc	-0.185681
-2.505142	ger.px3sp.nom	-0.1991173
-3.945858	ger_abs.nom	-0.1855627
-3.945858	ger_abs.px3sp.abl	-0.185681
-3.945858	ger_fut.px3sp.loc
-3.945858	ger_impf.px2sg.nom	-0.2305888
-3.12255	ger_impf.px3sp.acc	-0.2174247
-3.411597	ger_impf.px3sp.dat	-0.1681
-3.411597	ger_impf.px3sp.nom	-0.1902999
-2.892448	ger_past.abl	-0.6143672
-2.811228	ger_past.loc	-0.2480041
-2.63176	ger_past.nom	-0.1635503
-3.945858	ger_past.pl.acc	-0.1787851
-3.643465	ger_past.pl.gen	-0.1875342
-3.945858	ger_past.pl.nom
-3.945858	ger_past.pl.px3sp.nom	-0.1949225
-3.945858	ger_past.px1pl.nom	-0.1949225
-3.945858	ger_past.px1sg.nom	-0.1978066
-2.58533	ger_past.px3sp.acc	-0.2838581
-3.411597	ger_past.px3sp.ins	-0.2574031
-2.892448	ger_past.px3sp.nom	-0.1585293
-3.945858	ger_past.px3sp.sim	-0.1855627
-3.945858	ger_past.sim	-0.1875686
-3.643465	ger_perf.abl	-0.4046605
-3.411597	ger_perf.nom	-0.2186102
-3.309183	ger_perf.px3sp.acc	-0.1720555
-3.411597	ger_perf.px3sp.loc	-0.1726149
-3.643465	ger_perf.px3sp.nom	-0.1600397
-3.309183	gna_cond.p1.pl	-0.2006857
-3.945858	gna_cond.p1.sg
-3.643465	gna_cond.p2.frm.sg	-0.2245901
-2.469994	gna_cond.p3.sg	-0.6085436
-1.824499	gna_perf	-0.4853046
-2.811228	gpr_fut	-0.1836641
-2.134303	gpr_impf	-0.2950642
-1.722823	gpr_past	-0.3331122
-3.309183	gpr_pot	-0.301542
-3.945858	gpr_ppot.abl	-0.185681
-3.945858	gpr_ppot.nom	-0.1958475
-1.937231	guio	-0.3772007
-3.945858	ij	-0.4842904
-1.937231	lpar	-0.6247226
-2.049605	lquot	-0.3957693
-1.899329	n	-0.1855627
-2.089892	n.abl	-0.2307564
-2.118989	n.acc	-0.1394091
-3.945858	n.ant.m.nom	-0.1967705
-1.88155	n.dat	-0.3106639
-2.001115	n.gen	-0.4693451
-2.407228	n.ins	-0.1508143
-2.024683	n.loc	-0.1690991
-1.5505	n.nom	-0.3615055
-3.945858	n.pl	-0.1900498
-2.742831	n.pl.abl	-0.1551068
-2.683754	n.pl.acc	-0.2643702
-2.378949	n.pl.dat	-0.1954375
-2.166652	n.pl.gen	-0.2352664
-2.683754	n.pl.ins	-0.180416
-2.63176	n.pl.loc	-0.1375707
-2.012739	n.pl.nom	-0.159045
-3.945858	n.pl.px1sg.dat	-0.1830883
-2.63176	n.pl.px3sp.abl	-0.1896448
-2.134303	n.pl.px3sp.acc	-0.3637321
-2.469994	n.pl.px3sp.dat	-0.1416229
-2.378949	n.pl.px3sp.gen	-0.2274063
-2.811228	n.pl.px3sp.ins	-0.1614864
-2.378949	n.pl.px3sp.loc	-0.1137021
-2.134303	n.pl.px3sp.nom	-0.1799894
-3.945858	n.px1pl.abl	-0.1875686
-3.945858	n.px1pl.acc	-0.1895814
-3.945858	n.px1pl.dat	-0.1875686
-3.411597	n.px1pl.gen	-0.1827313
-3.411597	n.px1pl.loc	-0.1886429
-3.643465	n.px1pl.nom	-0.1744721
-3.643465	n.px1sg.acc	-0.2084734
-3.945858	n.px1sg.gen	-0.1922522
-3.643465	n.px1sg.nom	-0.1778395
-3.643465	n.px2sg.loc	-0.1681168
-3.643465	n.px2sg.nom	-0.1749571
-2.166652	n.px3sp.abl	-0.221864
-2.024683	n.px3sp.acc	-0.3022735
-2.062623	n.px3sp.dat	-0.2000684
-2.281288	n.px3sp.gen	-0.3740946
-2.259956	n.px3sp.ins	-0.04796273
-1.978759	n.px3sp.loc	-0.2203232
-1.754142	n.px3sp.nom	-0.2271568
-3.411597	n.px3sp.sim	-0.2107081
-3.643465	n.sim	-0.1359643
-3.411597	n.top.nom	-0.1789217
-3.945858	np.abl	-0.1875686
-3.945858	np.ad.dat	-0.1994133
-3.945858	np.al.acc	-0.1854607
-3.945858	np.al.gen	-0.1980365
-2.437478	np.al.nom	-0.4205334
-3.411597	np.ant.dat	-0.2405615
-3.643465	np.ant.f.abl	-0.1910494
-3.945858	np.ant.f.dat	-0.1955009
-3.643465	np.ant.f.gen	-0.1802735
-2.811228	np.ant.f.nom	-0.09871216
-3.945858	np.ant.f.pl.px3sp.nom	-0.188173
-3.945858	np.ant.gen	-0.1922522
-3.411597	np.ant.m.abl	-0.1923829
-3.643465	np.ant.m.acc	-0.2156338
-2.58533	np.ant.m.dat	-0.1486286
-2.407228	np.ant.m.gen	-0.2308138
-3.411597	np.ant.m.ins	-0.1838014
-3.643465	np.ant.m.loc	-0.1939956
-1.967999	np.ant.m.nom	-0.210748
-3.945858	np.ant.m.pl.nom	-0.1922522
-3.945858	np.ant.m.pl.px1sg.dat	-0.1998713
-3.309183	np.ant.m.px1sg.nom	-0.227731
-3.945858	np.ant.m.px2sg.nom	-0.1990695
-3.945858	np.ant.m.px3sp.gen	-0.1922522
-3.945858	np.ant.m.px3sp.nom	-0.1939956
-3.945858	np.ant.m.sim	-0.1872315
-3.945858	np.cog.m.dat	-0.1874509
-2.811228	np.cog.m.gen	-0.2295079
-3.945858	np.cog.m.ins	-0.1996581
-2.683754	np.cog.m.nom	-0.2583561
-3.945858	np.cog.m.pl.gen	-0.1978066
-3.945858	np.cog.m.pl.nom	-0.1922522
-3.411597	np.cog.mf.dat	-0.18048
-2.811228	np.cog.mf.gen	-0.3560312
-2.134303	np.cog.mf.nom	-0.468418
-3.945858	np.cog.mf.pl.ins	-0.194691
-3.945858	np.cog.mf.pl.nom	-0.194691
-2.892448	np.gen	-0.2313352
-3.945858	np.ins	-0.1796252
-3.945858	np.pat.m.nom	-0.1990695
-2.183778	np.top
-2.892448	np.top.abl	-0.1624291
-2.683754	np.top.acc	-0.2659011
-2.407228	np.top.dat	-0.1287241
-2.327379	np.top.gen	-0.2352429
-3.12255	np.top.ins	-0.175767
-2.327379	np.top.loc	-0.1704188
-2.089892	np.top.nom	-0.4116816
-3.945858	np.top.pl.nom	-0.1855627
-3.309183	np.unk	-0.4498886
-1.767331	num	-0.8745775
-3.945858	num.coll
-3.945858	num.itg	-0.185681
-2.352399	num.ord	-0.3485149
-2.892448	num.percent	-0.3129574
-1.917867	post	-0.1344835
-2.742831	postadv	-0.1390718
-3.643465	prc_fplan	-0.1829132
-2.049605	prc_impf	-0.3819555
-1.917867	prc_perf	-0.49616
-3.945858	prc_vol.p1.sg	-0.1998713
-3.643465	prn.dem.abl	-0.4280984
-3.12255	prn.dem.acc	-0.1593721
-3.945858	prn.dem.adv	-0.1877186
-3.643465	prn.dem.dat	-0.2725435
-3.411597	prn.dem.gen	-0.2255211
-3.411597	prn.dem.ins	-0.1821357
-3.309183	prn.dem.loc	-0.1330561
-3.309183	prn.dem.nom	-0.1669366
-3.411597	prn.dem.pl.abl	-0.1945205
-3.945858	prn.dem.pl.dat	-0.185681
-3.12255	prn.dem.pl.gen	-0.2297253
-3.411597	prn.dem.pl.loc	-0.1875686
-3.945858	prn.dem.pl.nom	-0.185681
-3.945858	prn.dem.px3sp.abl	-0.185681
-3.945858	prn.dem.qnt	-0.1942275
-3.643465	prn.dem.sim.nom	-0.1614475
-3.945858	prn.ind.nom	-0.185681
-3.945858	prn.ind.pl.acc	-0.1882905
-3.945858	prn.ind.pl.dat	-0.1875686
-3.945858	prn.ind.pl.gen	-0.185681
-3.945858	prn.itg.abl	-0.2539761
-3.945858	prn.itg.dat	-0.1875686
-3.945858	prn.itg.nom	-0.271642
-3.945858	prn.itg.sim.nom	-0.1909852
-3.643465	prn.pers.abl	-0.1250107
-2.992435	prn.pers.acc	-0.1186456
-2.892448	prn.pers.dat	-0.1502066
-2.327379	prn.pers.gen	-0.2762287
-3.945858	prn.pers.ins	-0.185681
-3.643465	prn.pers.loc	-0.197001
-2.543388	prn.pers.nom	-0.1504288
-3.945858	prn.qnt.pl.gen	-0.1975765
-3.945858	prn.qnt.pl.nom	-0.194691
-3.945858	prn.qnt.pl.px3sp.loc
-3.945858	prn.qnt.px3sp.acc	-0.192485
-3.945858	prn.qnt.px3sp.dat	-0.1934152
-3.945858	prn.qnt.px3sp.loc	-0.1995278
-3.643465	prn.qnt.px3sp.nom	-0.172997
-3.945858	prn.recip.px3sp.abl	-0.1843947
-3.411597	prn.recip.px3sp.dat	-0.2174736
-3.945858	prn.recip.px3sp.ins	-0.1882905
-3.411597	prn.ref.px3pl.acc	-0.1913355
-3.945858	prn.ref.px3sp.abl	-0.1855627
-3.945858	prn.ref.px3sp.adv	-0.1813005
-2.63176	prn.ref.px3sp.gen	-0.2046358
-3.945858	prn.ref.px3sp.loc
-3.12255	prn.ref.px3sp.nom	-0.1656816
-3.945858	prn.ref.px3sp.sim	-0.1956164
-2.076044	rpar	-0.237855
-2.012739	rquot	-0.4084019
-1.546455	sent	-0.523814
-2.811228	subst.abl	-0.2913473
-3.643465	subst.acc	-0.1637106
-2.683754	subst.dat	-0.261508
-2.992435	subst.loc	-0.1661595
-2.992435	subst.nom	-0.1659218
-3.945858	subst.pl.abl	-0.1813005
-3.411597	subst.pl.gen	-0.2640926
-2.992435	subst.pl.nom	-0.1878206
-3.945858	subst.pl.px3sp.acc	-0.1961939
-3.945858	subst.pl.px3sp.ins	-0.1848688
-3.12255	subst.pl.px3sp.nom	-0.1513331
-3.411597	subst.px3sp.abl	-0.1895814
-3.945858	subst.px3sp.acc	-0.1964246
-3.411597	subst.px3sp.dat	-0.1772372
-3.945858	subst.px3sp.gen	-0.1942275
-3.643465	subst.px3sp.ins	-0.1626657
-3.945858	subst.px3sp.loc	-0.1989548
-2.437478	subst.px3sp.nom	-0.2018211
-3.643465	subst.sim	-0.1732571
-3.945858	sym	-0.1875686
-3.945858	t.iv
-3.411597	t.tv
-3.945858	t.tv.aor.p3.sg	-0.1874509
-1.716821	v.iv
-3.945858	v.iv.aor.p1.sg	-0.2418487
-3.643465	v.iv.aor.p3.pl	-0.2816099
-1.989793	v.iv.aor.p3.sg	-1.235272
-3.309183	v.iv.coop
-3.945858	v.iv.coop.aor.p3.sg	-0.1855627
-3.945858	v.iv.coop.ifi.p1.pl	-0.1955009
-3.945858	v.iv.coop.neg
-3.945858	v.iv.coop.past.p3.pl	-0.1949225
-3.945858	v.iv.coop.pih.p3.sg	-0.1874509
-3.945858	v.iv.fut.p3.sg	-0.1855627
-3.945858	v.iv.fut_plan.p3.sg	-0.1874509
-3.411597	v.iv.ifi.p1.sg	-0.1859336
-3.411597	v.iv.ifi.p3.pl	-0.2592913
-2.089892	v.iv.ifi.p3.sg	-1.226594
-3.309183	v.iv.imp.p2.sg	-0.2231927
-2.58533	v.iv.neg
-3.643465	v.iv.neg.aor.p3.sg	-0.2412523
-3.12255	v.iv.neg.ifi.p3.sg	-0.2221146
-3.643465	v.iv.neg.imp.p2.sg	-0.2025364
-3.945858	v.iv.neg.pih.p3.sg	-0.1855627
-3.643465	v.iv.past.p3.pl	-0.2816099
-2.239622	v.iv.past.p3.sg	-0.7018594
-2.992435	v.iv.pih.p3.sg	-0.7587311
-1.635522	v.tv
-2.892448	v.tv.aor.p3.pl	-0.7587311
-2.183778	v.tv.aor.p3.sg	-1.026633
-2.992435	v.tv.coop
-3.643465	v.tv.coop.aor.p3.sg	-0.2816099
-3.945858	v.tv.coop.ifi.p1.pl	-0.1961939
-3.945858	v.tv.coop.ifi.p2.sg	-0.185681
-3.309183	v.tv.coop.ifi.p3.sg	-0.2412523
-3.945858	v.tv.coop.pih.p3.sg	-0.1874509
-3.411597	v.tv.fut.p3.sg	-0.1814199
-3.643465	v.tv.fut_plan.p3.sg	-0.2344878
-3.945858	v.tv.ifi.p1.pl	-0.1886429
-3.945858	v.tv.ifi.p3.pl	-0.1874509
-2.062623	v.tv.ifi.p3.sg	-1.294327
-3.945858	v.tv.imp.p2.frm.sg	-0.1949225
-2.742831	v.tv.neg
-3.411597	v.tv.neg.aor.p3.sg	-0.2592913
-3.411597	v.tv.neg.ifi.p3.sg	-0.1726149
-3.945858	v.tv.neg.imp.p2.frm.sg	-0.1855627
-3.411597	v.tv.neg.imp.p2.sg	-0.1959788
-3.945858	v.tv.neg.past.p3.sg	-0.1874509
-1.947247	v.tv.pass
-2.407228	v.tv.pass.aor.p3.sg	-0.9201984
-2.303722	v.tv.pass.ifi.p3.sg	-1.041809
-3.12255	v.tv.pass.neg
-3.411597	v.tv.pass.past.p3.pl	-0.1803439
-2.505142	v.tv.pass.past.p3.sg	-0.6102111
-3.411597	v.tv.pass.pih.p3.sg	-0.1907516
-2.58533	v.tv.past.p3.sg	-0.5617416
-3.411597	v.tv.pih.p3.sg	-0.1727368
-3.643465	vaux
-3.411597	vaux.aor.p3.sg	-0.6776614
-3.945858	vaux.ifi.p1.pl	-0.1874509
-3.411597	vaux.ifi.p3.pl	-0.2592913
-3.643465	vaux.ifi.p3.sg	-1.248935
-3.411597	vaux.neg
-3.945858	vaux.neg.aor.p3.sg	-0.2592913
-3.411597	vaux.past.p3.sg	-0.5034587
-3.643465	vaux.pih.p3.sg	-0.2324836
-3.643465	vaux.pres.p3.sg	-0.6495867

\2-grams:
-1.336065	"-ақ".postadv adj
-0.9344182	"-ақ".postadv cm
-1.336065	"-ақ".postadv n.dat
-1.336065	"-ақ".postadv n.loc
-1.336065	"-ақ".postadv n.nom
-1.336065	"-ақ".postadv sent
-1.336065	"-ақ".postadv v.iv.past.p3.sg
-0.4329748	".".sent np.al.nom
-1.880133	"да".cnjcoo "е".cop.aor.p3.sg
-1.880133	"да".cnjcoo "сыз".post
-1.880133	"да".cnjcoo adj
-0.2865102	"да".cnjcoo cm
-1.880133	"да".cnjcoo cop.neg.aor.p3.sg
-1.478486	"да".cnjcoo gpr_fut
-1.880133	"да".cnjcoo n
-1.880133	"да".cnjcoo n.acc
-1.880133	"да".cnjcoo n.px3sp.nom
-1.478486	"да".cnjcoo v.iv.neg
-1.880133	"да".cnjcoo v.iv.neg.pih.p3.sg
-2.148978	"да".postadv "е".cop.aor.p3.sg
-0.6958089	"да".postadv adj
-1.322257	"да".postadv adv
-1.322257	"да".postadv advl
-1.747332	"да".postadv cm
-2.148978	"да".postadv cop.neg.aor.p3.sg
-2.148978	"да".postadv ger_perf.px3sp.nom
-2.148978	"да".postadv lpar
-2.148978	"да".postadv n.acc
-1.747332	"да".postadv n.gen
-2.148978	"да".postadv n.ins
-1.065116	"да".postadv n.nom
-2.148978	"да".postadv n.pl.ins
-2.148978	"да".postadv np.ant.m.nom
-2.148978	"да".postadv prc_impf
-2.148978	"да".postadv prn.pers.nom
-2.148978	"да".postadv prn.qnt.px3sp.loc
-2.148978	"да".postadv prn.ref.px3sp.gen
-2.148978	"да".postadv sent
-2.148978	"да".postadv v.iv.aor.p3.sg
-1.546924	"да".postadv v.iv.ifi.p3.sg
-2.148978	"да".postadv v.iv.past.p3.sg
-2.148978	"да".postadv v.tv
-2.148978	"да".postadv v.tv.coop.pih.p3.sg
-2.148978	"да".postadv v.tv.ifi.p3.sg
-2.148978	"да".postadv v.tv.pass
-0.6417498	"е".cop.aor.p3.pl cm
-1.813186	"е".cop.aor.p3.pl cnjcoo
-1.411539	"е".cop.aor.p3.pl lpar
-0.2841368	"е".cop.aor.p3.pl sent
-2.597328	"е".cop.aor.p3.sg abbr
-0.5571555	"е".cop.aor.p3.sg cm
-2.597328	"е".cop.aor.p3.sg cnjcoo
-2.597328	"е".cop.aor.p3.sg guio
-1.144158	"е".cop.aor.p3.sg lpar
-1.995274	"е".cop.aor.p3.sg rpar
-0.2376196	"е".cop.aor.p3.sg sent
-1.779516	"лы".post "е".cop.aor.p3.sg
-2.181163	"лы".post "лы".post
-2.181163	"лы".post abbr
-1.779516	"лы".post adj
-1.779516	"лы".post attr
-2.181163	"лы".post cm
-2.181163	"лы".post cnjcoo
-2.181163	"лы".post cop
-2.181163	"лы".post ger.acc
-2.181163	"лы".post ger_impf.px3sp.acc
-2.181163	"лы".post ger_past.px3sp.acc
-2.181163	"лы".post lquot
-1.579109	"лы".post n
-2.181163	"лы".post n.acc
-2.181163	"лы".post n.gen
-2.181163	"лы".post n.ins
-2.181163	"лы".post n.loc
-0.6186278	"лы".post n.nom
-2.181163	"лы".post n.pl.abl
-2.181163	"лы".post n.pl.gen
-2.181163	"лы".post n.pl.ins
-1.0973	"лы".post n.pl.nom
-2.181163	"лы".post n.pl.px3sp.gen
-2.181163	"лы".post n.px3sp.ins
-2.181163	"лы".post np.ant.m.dat
-2.181163	"лы".post np.cog.mf.nom
-2.181163	"лы".post num
-1.779516	"лы".post prc_impf
-2.181163	"лы".post v.iv
-2.181163	"лы".post v.tv.coop
-2.181163	"лы".post v.tv.pass
-0.6333882	"сыз".post n.nom
-1.035035	"сыз".post n.px3sp.nom
-1.035035	"сыз".post v.iv.ifi.p3.sg
-0.7141959	"ғана".postadv adj
-1.286601	"ғана".postadv cop.neg.aor.p3.sg
-1.688247	"ғана".postadv gna_perf
-1.688247	"ғана".postadv n.gen
-1.688247	"ғана".postadv n.nom
-1.688247	"ғана".postadv prc_perf
-1.688247	"ғана".postadv v.iv.aor.p3.sg
-1.688247	"ғана".postadv v.iv.ifi.p3.sg
-1.688247	"ғана".postadv v.iv.past.p3.sg
-1.688247	"ғана".postadv v.tv
-1.688247	"ғана".postadv v.tv.ifi.p3.sg
-1.688247	"ғана".postadv v.tv.neg
-1.688247	"ғана".postadv v.tv.pass.aor.p3.sg
-0.4329748	"ғой".mod_ass guio
-2.536478	abbr "е".cop.aor.p3.sg
-2.938125	abbr "лы".post
-0.9552156	abbr abbr
-2.938125	abbr abbr.dat
-1.57696	abbr adj
-2.938125	abbr adv
-2.111404	abbr attr
-1.528526	abbr cm
-2.111404	abbr cnjcoo
-2.536478	abbr det.dem
-2.536478	abbr det.qnt
-2.938125	abbr det.ref
-2.111404	abbr gpr_past
-1.964073	abbr guio
-2.938125	abbr lpar
-2.938125	abbr lquot
-2.336071	abbr n
-2.938125	abbr n.abl
-2.336071	abbr n.acc
-2.111404	abbr n.gen
-2.336071	abbr n.loc
-1.173197	abbr n.nom
-2.938125	abbr n.pl.abl
-2.536478	abbr n.pl.dat
-2.536478	abbr n.pl.gen
-2.938125	abbr n.pl.ins
-1.693845	abbr n.pl.nom
-2.938125	abbr n.pl.px3sp.acc
-2.938125	abbr n.pl.px3sp.loc
-2.938125	abbr n.pl.px3sp.nom
-2.536478	abbr n.px3sp.abl
-2.938125	abbr n.px3sp.acc
-2.536478	abbr n.px3sp.dat
-1.854262	abbr n.px3sp.loc
-1.964073	abbr n.px3sp.nom
-2.938125	abbr np.ant.f.nom
-2.938125	abbr np.ant.m.gen
-1.964073	abbr np.ant.m.nom
-1.631482	abbr np.cog.m.gen
-2.536478	abbr np.cog.m.ins
-1.193905	abbr np.cog.m.nom
-2.938125	abbr np.cog.mf.dat
-1.964073	abbr np.cog.mf.gen
-1.215651	abbr np.cog.mf.nom
-2.938125	abbr np.top
-2.336071	abbr np.top.acc
-2.536478	abbr np.top.gen
-2.111404	abbr np.top.loc
-1.964073	abbr np.top.nom
-1.215651	abbr num
-2.938125	abbr num.ord
-2.938125	abbr prc_perf
-2.938125	abbr prn.dem.acc
-0.9804168	abbr rpar
-1.57696	abbr sent
-2.938125	abbr subst.pl.px3sp.nom
-2.336071	abbr v.iv
-2.938125	abbr v.iv.aor.p3.sg
-2.536478	abbr v.iv.ifi.p3.sg
-2.938125	abbr v.tv
-2.938125	abbr v.tv.aor.p3.pl
-2.938125	abbr v.tv.pass
-2.938125	abbr v.tv.pass.past.p3.sg
-2.938125	abbr v.tv.past.p3.sg
-0.4329748	abbr.dat rpar
-0.4329748	abbr.gen num.ord
-0.910096	abl "е".cop.aor.p3.sg
-0.910096	abl adj
-0.910096	abl adv
-3.116262	adj "-ақ".postadv
-3.517908	adj "да".cnjcoo
-2.434046	adj "да".postadv
-3.116262	adj "е".cop.aor.p3.pl
-1.818326	adj "е".cop.aor.p3.sg
-2.156744	adj "лы".post
-3.116262	adj "ғана".postadv
-2.346472	adj abbr
-1.303351	adj adj
-2.434046	adj adv
-1.40846	adj attr
-1.586954	adj cm
-1.678803	adj cnjcoo
-2.915855	adj cop
-3.517908	adj cop.ifi.p3.sg
-2.915855	adj cop.neg.aor.p3.sg
-3.116262	adj det.ind
-3.517908	adj det.ref
-3.517908	adj ger.acc
-3.116262	adj ger.dat
-2.543857	adj ger.nom
-3.116262	adj ger_impf.px2sg.nom
-3.517908	adj ger_past.nom
-3.116262	adj ger_past.px3sp.acc
-3.517908	adj ger_past.px3sp.nom
-3.517908	adj ger_perf.px3sp.acc
-3.517908	adj ger_perf.px3sp.nom
-3.116262	adj gna_cond.p3.sg
-3.116262	adj gna_perf
-3.116262	adj gpr_impf
-2.156744	adj gpr_past
-3.517908	adj gpr_pot
-3.517908	adj gpr_ppot.nom
-2.064739	adj guio
-2.691187	adj lpar
-2.915855	adj lquot
-1.662082	adj n
-1.955373	adj n.abl
-2.10831	adj n.acc
-1.696194	adj n.dat
-1.696194	adj n.gen
-2.064739	adj n.ins
-1.417705	adj n.loc
-0.7596725	adj n.nom
-2.211266	adj n.pl.abl
-1.988859	adj n.pl.acc
-1.988859	adj n.pl.dat
-1.895276	adj n.pl.gen
-2.543857	adj n.pl.ins
-2.273628	adj n.pl.loc
-1.249395	adj n.pl.nom
-3.517908	adj n.pl.px3sp.abl
-1.924286	adj n.pl.px3sp.acc
-2.543857	adj n.pl.px3sp.dat
-2.025144	adj n.pl.px3sp.gen
-3.116262	adj n.pl.px3sp.ins
-2.434046	adj n.pl.px3sp.loc
-1.436808	adj n.pl.px3sp.nom
-3.517908	adj n.px1pl.dat
-3.517908	adj n.px1pl.nom
-3.517908	adj n.px2sg.loc
-2.434046	adj n.px3sp.abl
-1.696194	adj n.px3sp.acc
-1.955373	adj n.px3sp.dat
-1.895276	adj n.px3sp.gen
-2.273628	adj n.px3sp.ins
-1.752981	adj n.px3sp.loc
-1.163372	adj n.px3sp.nom
-3.517908	adj n.px3sp.sim
-3.517908	adj n.sim
-3.116262	adj np.ant.m.acc
-3.517908	adj np.ant.m.dat
-3.517908	adj np.ant.m.nom
-3.517908	adj np.cog.m.pl.nom
-3.116262	adj np.cog.mf.nom
-2.025144	adj np.top
-3.116262	adj np.top.abl
-2.915855	adj np.top.acc
-3.517908	adj np.top.dat
-2.346472	adj np.top.gen
-3.116262	adj np.top.loc
-1.955373	adj np.top.nom
-2.156744	adj num
-3.517908	adj postadv
-3.517908	adj prc_impf
-2.915855	adj prc_perf
-3.517908	adj prn.qnt.pl.px3sp.loc
-2.346472	adj rpar
-2.543857	adj rquot
-2.346472	adj sent
-3.517908	adj subst.pl.px3sp.nom
-1.842492	adj v.iv
-2.156744	adj v.iv.ifi.p3.sg
-2.691187	adj v.iv.past.p3.sg
-2.064739	adj v.tv
-3.517908	adj v.tv.neg
-2.915855	adj v.tv.pass
-3.517908	adj v.tv.pass.past.p3.pl
-1.035035	adj.comp ger_past.pl.px3sp.nom
-1.035035	adj.comp n.dat
-1.035035	adj.comp n.nom
-1.035035	adj.comp v.tv.pass
-1.849859	adv "е".cop.aor.p3.sg
-2.82391	adv "лы".post
-2.82391	adv "сыз".post
-2.221856	adv abbr
-0.7331531	adv adj
-2.221856	adv adv
-2.82391	adv advj
-2.422263	adv advl
-1.997189	adv attr
-1.020311	adv cm
-2.82391	adv cnjcoo
-2.422263	adv cop.ifi.p3.sg
-2.82391	adv det.ind
-2.82391	adv ger.dat
-2.82391	adv ger.nom
-2.422263	adv ger.px3sp.nom
-2.82391	adv ger_past.px1sg.nom
-1.849859	adv gna_perf
-2.82391	adv gpr_fut
-2.221856	adv gpr_impf
-2.221856	adv gpr_past
-2.221856	adv guio
-2.82391	adv lpar
-2.422263	adv lquot
-1.849859	adv n
-2.422263	adv n.abl
-2.82391	adv n.acc
-2.422263	adv n.dat
-2.82391	adv n.gen
-2.82391	adv n.loc
-0.9069775	adv n.nom
-2.82391	adv n.pl.acc
-2.82391	adv n.pl.dat
-2.82391	adv n.pl.nom
-2.422263	adv n.pl.px3sp.acc
-2.82391	adv n.pl.px3sp.nom
-2.422263	adv n.px3sp.acc
-2.82391	adv n.px3sp.dat
-2.221856	adv n.px3sp.nom
-2.82391	adv np.ant.m.gen
-2.82391	adv np.cog.mf.nom
-2.82391	adv np.top.gen
-2.221856	adv np.top.nom
-1.652474	adv num
-2.221856	adv prc_impf
-1.652474	adv prc_perf
-2.82391	adv prn.dem.acc
-2.82391	adv prn.ind.pl.acc
-2.82391	adv prn.pers.gen
-2.82391	adv prn.pers.nom
-2.422263	adv sent
-2.82391	adv subst.pl.nom
-2.82391	adv subst.pl.px3sp.nom
-2.82391	adv subst.px3sp.nom
-1.414311	adv v.iv
-1.849859	adv v.iv.aor.p3.sg
-2.82391	adv v.iv.coop
-2.221856	adv v.iv.ifi.p3.sg
-2.82391	adv v.iv.neg
-2.82391	adv v.iv.past.p3.sg
-1.652474	adv v.tv
-2.82391	adv v.tv.coop
-2.82391	adv v.tv.ifi.p3.sg
-1.740047	adv v.tv.pass
-2.82391	adv v.tv.pass.ifi.p3.sg
-2.82391	adv v.tv.past.p3.sg
-1.336065	adv.itg adj
-1.336065	adv.itg ger_perf.px3sp.acc
-1.336065	adv.itg gna_perf
-1.336065	adv.itg gpr_past
-1.336065	adv.itg subst.px3sp.nom
-0.9344182	adv.itg v.iv
-1.336065	adv.itg v.tv
-0.7340047	advj prc_impf
-0.7340047	advj v.tv
-2.406103	advl "-ақ".postadv
-2.406103	advl "лы".post
-2.004456	advl cop.ifi.p3.sg
-2.406103	advl ger.dat
-2.406103	advl ger_perf.nom
-1.044938	advl gna_perf
-1.579382	advl gpr_impf
-2.406103	advl n
-1.804049	advl n.nom
-2.406103	advl n.px3sp.abl
-2.406103	advl n.px3sp.acc
-1.804049	advl prc_impf
-1.32224	advl prc_perf
-2.004456	advl rpar
-1.161823	advl v.iv
-1.432051	advl v.iv.aor.p3.sg
-2.406103	advl v.iv.coop.ifi.p1.pl
-1.432051	advl v.iv.ifi.p3.sg
-2.004456	advl v.iv.imp.p2.sg
-2.406103	advl v.iv.neg
-2.406103	advl v.iv.past.p3.pl
-1.804049	advl v.iv.past.p3.sg
-0.8770534	advl v.tv
-2.004456	advl v.tv.aor.p3.sg
-2.406103	advl v.tv.coop.ifi.p1.pl
-1.044938	advl v.tv.ifi.p3.sg
-2.004456	advl v.tv.pass
-2.004456	advl v.tv.pass.ifi.p3.sg
-0.7340047	apos cm
-0.7340047	apos np.cog.mf.nom
-3.051023	attr "да".cnjcoo
-2.649376	attr "да".postadv
-2.076972	attr "е".cop.aor.p3.sg
-2.448969	attr "лы".post
-3.051023	attr abbr
-0.9899048	attr adj
-2.448969	attr adv
-3.051023	attr advl
-1.597854	attr attr
-1.96716	attr cm
-2.649376	attr det.dem
-3.051023	attr det.ind
-3.051023	attr ger.nom
-3.051023	attr gpr_impf
-2.649376	attr guio
-3.051023	attr lpar
-3.051023	attr lquot
-1.806743	attr n
-2.448969	attr n.abl
-1.96716	attr n.acc
-3.051023	attr n.ant.m.nom
-1.641424	attr n.dat
-1.689858	attr n.gen
-2.076972	attr n.loc
-0.9149634	attr n.nom
-2.224302	attr n.pl.acc
-1.96716	attr n.pl.dat
-1.806743	attr n.pl.gen
-3.051023	attr n.pl.loc
-1.641424	attr n.pl.nom
-2.224302	attr n.pl.px3sp.acc
-2.649376	attr n.pl.px3sp.dat
-1.96716	attr n.pl.px3sp.gen
-2.448969	attr n.pl.px3sp.ins
-2.649376	attr n.pl.px3sp.loc
-1.641424	attr n.pl.px3sp.nom
-3.051023	attr n.px1sg.nom
-2.224302	attr n.px3sp.abl
-1.806743	attr n.px3sp.acc
-1.74438	attr n.px3sp.dat
-1.163569	attr n.px3sp.gen
-2.448969	attr n.px3sp.ins
-1.375607	attr n.px3sp.loc
-0.8364652	attr n.px3sp.nom
-3.051023	attr n.top.nom
-3.051023	attr np.al.nom
-3.051023	attr np.ant.m.gen
-3.051023	attr np.ant.m.loc
-1.74438	attr np.ant.m.nom
-3.051023	attr np.ant.m.px1sg.nom
-2.448969	attr np.cog.m.gen
-2.649376	attr np.top
-3.051023	attr np.top.acc
-3.051023	attr np.top.gen
-3.051023	attr np.top.loc
-1.96716	attr np.top.nom
-2.224302	attr num
-3.051023	attr post
-3.051023	attr prn.ind.nom
-3.051023	attr sent
-3.051023	attr subst.acc
-3.051023	attr v.iv
-3.051023	attr v.tv
-2.41952	cm "да".cnjcoo
-2.901329	cm "да".postadv
-2.901329	cm "е".cop.aor.p3.pl
-2.050213	cm "е".cop.aor.p3.sg
-3.503382	cm "лы".post
-3.503382	cm "ғана".postadv
-1.261009	cm abbr
-0.9859169	cm adj
-1.442264	cm adv
-2.901329	cm advl
-1.647555	cm attr
-3.503382	cm cnjadv
-1.681667	cm cnjcoo
-2.41952	cm cnjsub
-2.676661	cm det.dem
-3.101736	cm det.ind
-2.676661	cm det.qnt
-2.676661	cm det.ref
-3.503382	cm ger.dat
-3.503382	cm ger.gen
-2.259102	cm ger.nom
-3.503382	cm ger.px2sg.nom
-3.503382	cm ger.px3sp.nom
-3.503382	cm ger_past.pl.gen
-3.503382	cm gna_cond.p3.sg
-2.331946	cm gna_perf
-3.503382	cm gpr_fut
-3.503382	cm gpr_impf
-2.529331	cm gpr_past
-2.331946	cm guio
-1.545674	cm lquot
-1.827966	cm n
-2.259102	cm n.abl
-2.676661	cm n.acc
-1.940847	cm n.dat
-1.853556	cm n.gen
-3.101736	cm n.ins
-2.010618	cm n.loc
-0.768345	cm n.nom
-3.503382	cm n.pl.abl
-2.901329	cm n.pl.acc
-2.529331	cm n.pl.dat
-2.196739	cm n.pl.gen
-3.503382	cm n.pl.ins
-1.572428	cm n.pl.nom
-3.101736	cm n.pl.px3sp.gen
-2.676661	cm n.pl.px3sp.nom
-3.503382	cm n.px1pl.nom
-3.503382	cm n.px1sg.nom
-3.503382	cm n.px2sg.nom
-3.503382	cm n.px3sp.abl
-2.529331	cm n.px3sp.acc
-2.331946	cm n.px3sp.dat
-2.901329	cm n.px3sp.ins
-2.259102	cm n.px3sp.loc
-1.699784	cm n.px3sp.nom
-2.901329	cm np.al.nom
-3.503382	cm np.ant.dat
-2.676661	cm np.ant.f.nom
-2.901329	cm np.ant.m.gen
-3.503382	cm np.ant.m.loc
-1.393933	cm np.ant.m.nom
-2.676661	cm np.cog.m.nom
-3.503382	cm np.cog.m.pl.gen
-3.101736	cm np.cog.mf.gen
-1.681667	cm np.cog.mf.nom
-3.503382	cm np.cog.mf.pl.ins
-2.331946	cm np.top
-3.503382	cm np.top.abl
-2.41952	cm np.top.acc
-2.901329	cm np.top.dat
-3.101736	cm np.top.gen
-3.503382	cm np.top.ins
-2.676661	cm np.top.loc
-1.261009	cm np.top.nom
-3.503382	cm np.top.pl.nom
-2.41952	cm np.unk
-1.288824	cm num
-2.142218	cm num.ord
-3.503382	cm num.percent
-3.503382	cm post
-3.503382	cm postadv
-3.503382	cm prc_fplan
-3.503382	cm prc_impf
-2.901329	cm prc_perf
-3.503382	cm prn.dem.acc
-2.901329	cm prn.dem.gen
-3.503382	cm prn.dem.ins
-3.101736	cm prn.dem.loc
-2.901329	cm prn.dem.nom
-3.503382	cm prn.dem.pl.dat
-3.503382	cm prn.dem.pl.gen
-3.503382	cm prn.ind.pl.dat
-3.101736	cm prn.pers.abl
-2.901329	cm prn.pers.acc
-2.676661	cm prn.pers.dat
-2.142218	cm prn.pers.gen
-3.503382	cm prn.pers.loc
-2.259102	cm prn.pers.nom
-3.503382	cm prn.recip.px3sp.dat
-3.101736	cm prn.ref.px3sp.gen
-3.503382	cm prn.ref.px3sp.nom
-3.503382	cm rpar
-3.503382	cm rquot
-1.880749	cm sent
-3.503382	cm subst.dat
-3.503382	cm subst.nom
-2.901329	cm subst.px3sp.nom
-2.142218	cm v.iv
-3.503382	cm v.iv.aor.p3.sg
-3.503382	cm v.iv.neg
-1.759163	cm v.tv
-3.503382	cm v.tv.coop.ifi.p2.sg
-3.503382	cm v.tv.coop.ifi.p3.sg
-3.503382	cm v.tv.pass.aor.p3.sg
-0.9344182	cnjadv cm
-0.9344182	cnjadv n.nom
-1.336065	cnjadv n.pl.nom
-1.336065	cnjadv n.px3sp.dat
-1.336065	cnjadv np.ant.m.gen
-1.336065	cnjadv np.ant.m.nom
-2.977043	cnjcoo "да".postadv
-2.977043	cnjcoo "е".cop.aor.p3.sg
-2.002991	cnjcoo "лы".post
-2.150322	cnjcoo abbr
-0.7279861	cnjcoo adj
-2.374989	cnjcoo adv
-1.484278	cnjcoo attr
-2.002991	cnjcoo cm
-2.977043	cnjcoo cop
-2.374989	cnjcoo det.dem
-2.977043	cnjcoo det.qnt
-2.977043	cnjcoo det.ref
-2.977043	cnjcoo ger.px2sg.dat
-2.977043	cnjcoo ger_perf.px3sp.acc
-2.977043	cnjcoo gna_perf
-2.374989	cnjcoo gpr_past
-2.002991	cnjcoo lquot
-1.615878	cnjcoo n
-2.374989	cnjcoo n.abl
-2.575396	cnjcoo n.acc
-2.977043	cnjcoo n.dat
-1.6704	cnjcoo n.gen
-2.977043	cnjcoo n.loc
-0.7624851	cnjcoo n.nom
-2.575396	cnjcoo n.pl.acc
-2.977043	cnjcoo n.pl.dat
-1.732763	cnjcoo n.pl.gen
-1.6704	cnjcoo n.pl.nom
-2.575396	cnjcoo n.pl.px3sp.acc
-2.575396	cnjcoo n.pl.px3sp.gen
-2.977043	cnjcoo n.pl.px3sp.nom
-2.977043	cnjcoo n.px1pl.loc
-2.374989	cnjcoo n.px3sp.abl
-2.002991	cnjcoo n.px3sp.acc
-2.150322	cnjcoo n.px3sp.gen
-2.977043	cnjcoo n.px3sp.loc
-1.567444	cnjcoo n.px3sp.nom
-2.977043	cnjcoo np.abl
-2.575396	cnjcoo np.al.nom
-2.977043	cnjcoo np.ant.f.abl
-2.575396	cnjcoo np.ant.m.dat
-2.150322	cnjcoo np.ant.m.gen
-2.575396	cnjcoo np.ant.m.nom
-2.977043	cnjcoo np.cog.m.gen
-2.977043	cnjcoo np.cog.mf.gen
-2.374989	cnjcoo np.cog.mf.nom
-2.977043	cnjcoo np.gen
-1.89318	cnjcoo np.top
-2.977043	cnjcoo np.top.abl
-2.374989	cnjcoo np.top.acc
-2.374989	cnjcoo np.top.dat
-2.150322	cnjcoo np.top.gen
-2.374989	cnjcoo np.top.loc
-1.447994	cnjcoo np.top.nom
-2.977043	cnjcoo np.unk
-1.89318	cnjcoo num
-2.977043	cnjcoo num.ord
-2.977043	cnjcoo prc_impf
-2.575396	cnjcoo prn.dem.abl
-2.977043	cnjcoo prn.dem.pl.gen
-2.977043	cnjcoo prn.dem.px3sp.abl
-2.977043	cnjcoo prn.ind.pl.gen
-2.977043	cnjcoo prn.pers.acc
-2.977043	cnjcoo prn.pers.dat
-2.002991	cnjcoo prn.pers.gen
-2.977043	cnjcoo prn.pers.ins
-2.374989	cnjcoo prn.pers.nom
-2.977043	cnjcoo prn.recip.px3sp.dat
-1.615878	cnjcoo sent
-2.977043	cnjcoo subst.pl.px3sp.nom
-2.575396	cnjcoo v.iv
-2.575396	cnjcoo v.tv
-2.575396	cnjcoo v.tv.pass
-2.977043	cnjcoo v.tv.pass.aor.p3.sg
-1.432975	cnjsub adj
-1.432975	cnjsub attr
-1.031328	cnjsub cm
-1.432975	cnjsub det.dem
-1.432975	cnjsub n.loc
-1.432975	cnjsub n.nom
-1.432975	cnjsub np.top.gen
-1.432975	cnjsub np.top.nom
-1.432975	cnjsub prn.pers.gen
-0.7302982	cop.aor.evid.p3.sg prc_perf
-1.131945	cop.aor.evid.p3.sg sent
-0.7302982	cop.aor.evid.p3.sg v.tv
-0.3323582	cop.aor.p1.sg n.nom
-0.4329748	cop.ifi.p1.pl rquot
-0.7340047	cop.ifi.p1.sg ger_impf.px3sp.nom
-0.7340047	cop.ifi.p1.sg v.tv
-1.262285	cop.ifi.p3.sg cm
-1.864339	cop.ifi.p3.sg rquot
-0.09941088	cop.ifi.p3.sg sent
-0.5604963	cop.neg.aor.p3.sg cm
-0.7851636	cop.neg.aor.p3.sg cop.ifi.p3.sg
-1.387217	cop.neg.aor.p3.sg n.pl.dat
-1.387217	cop.neg.aor.p3.sg np.al.nom
-1.445695	det.dem adj
-1.335884	det.dem attr
-2.419746	det.dem ger.nom
-1.817693	det.dem n.abl
-1.593026	det.dem n.acc
-1.445695	det.dem n.dat
-1.24831	det.dem n.gen
-2.0181	det.dem n.ins
-0.6755272	det.dem n.loc
-1.175467	det.dem n.nom
-2.419746	det.dem n.pl.abl
-1.593026	det.dem n.pl.acc
-2.419746	det.dem n.pl.dat
-2.0181	det.dem n.pl.gen
-2.0181	det.dem n.pl.loc
-1.445695	det.dem n.pl.nom
-2.0181	det.dem n.pl.px3sp.nom
-2.419746	det.dem n.px3sp.abl
-2.0181	det.dem n.px3sp.acc
-1.817693	det.dem n.px3sp.loc
-1.335884	det.dem n.px3sp.nom
-2.419746	det.dem np.ant.f.nom
-2.419746	det.dem num
-2.419746	det.dem post
-2.419746	det.dem sent
-2.419746	det.dem v.iv
-1.755194	det.ind "лы".post
-1.755194	det.ind adj
-1.755194	det.ind det.ind
-1.755194	det.ind guio
-1.755194	det.ind n
-1.755194	det.ind n.dat
-1.755194	det.ind n.gen
-1.755194	det.ind n.loc
-1.353548	det.ind n.nom
-1.755194	det.ind n.pl.gen
-1.755194	det.ind n.pl.loc
-1.15314	det.ind n.pl.nom
-1.755194	det.ind n.pl.px3sp.gen
-1.755194	det.ind n.pl.px3sp.loc
-1.755194	det.ind n.px3sp.abl
-1.755194	det.ind n.px3sp.nom
-1.755194	det.ind rpar
-1.755194	det.ind rquot
-0.910096	det.itg "да".postadv
-0.910096	det.itg n.acc
-0.910096	det.itg n.px3sp.abl
-0.7340047	det.neg n.loc
-0.7340047	det.neg n.nom
-2.035035	det.qnt "лы".post
-0.9511724	det.qnt adj
-2.035035	det.qnt cm
-2.035035	det.qnt n
-1.633388	det.qnt n.dat
-1.633388	det.qnt n.gen
-0.8635986	det.qnt n.nom
-2.035035	det.qnt n.pl.abl
-2.035035	det.qnt n.pl.dat
-2.035035	det.qnt n.pl.gen
-1.208314	det.qnt n.pl.nom
-2.035035	det.qnt n.pl.px3sp.abl
-2.035035	det.qnt n.pl.px3sp.acc
-2.035035	det.qnt n.pl.px3sp.gen
-2.035035	det.qnt n.pl.px3sp.ins
-2.035035	det.qnt n.pl.px3sp.loc
-2.035035	det.qnt n.pl.px3sp.nom
-2.035035	det.qnt n.px3sp.acc
-1.633388	det.qnt n.px3sp.nom
-1.432981	det.qnt np.top.acc
-2.035035	det.qnt sent
-1.549842	det.ref adj
-1.951489	det.ref adv
-1.951489	det.ref advl
-1.549842	det.ref attr
-1.349435	det.ref n.pl.px3sp.acc
-1.951489	det.ref n.pl.px3sp.dat
-1.951489	det.ref n.pl.px3sp.nom
-1.951489	det.ref n.px1sg.gen
-1.349435	det.ref n.px3sp.abl
-1.549842	det.ref n.px3sp.acc
-1.349435	det.ref n.px3sp.dat
-1.349435	det.ref n.px3sp.gen
-1.549842	det.ref n.px3sp.ins
-0.9774374	det.ref n.px3sp.loc
-1.549842	det.ref n.px3sp.nom
-1.951489	det.ref np.ant.m.px3sp.gen
-0.4329748	gen adj
-1.579103	ger.acc cm
-1.579103	ger.acc ger.nom
-1.579103	ger.acc gpr_past
-1.579103	ger.acc n.ins
-1.579103	ger.acc n.nom
-1.177456	ger.acc num
-1.579103	ger.acc rquot
-1.579103	ger.acc v.iv.aor.p3.sg
-1.177456	ger.acc v.iv.ifi.p3.sg
-1.177456	ger.acc v.tv
-1.579103	ger.acc v.tv.aor.p3.sg
-0.9939324	ger.dat adj
-1.763722	ger.dat adv
-2.165369	ger.dat cm
-2.165369	ger.dat cnjcoo
-2.165369	ger.dat ger.px3sp.nom
-2.165369	ger.dat gpr_impf
-1.763722	ger.dat gpr_past
-2.165369	ger.dat n.acc
-0.9939324	ger.dat n.nom
-2.165369	ger.dat n.px3sp.acc
-2.165369	ger.dat prc_impf
-1.763722	ger.dat prc_perf
-2.165369	ger.dat rpar
-2.165369	ger.dat sent
-2.165369	ger.dat subst.px3sp.dat
-1.338648	ger.dat v.iv
-0.9939324	ger.dat v.iv.aor.p3.sg
-1.763722	ger.dat v.iv.ifi.p3.sg
-2.165369	ger.dat v.iv.neg
-2.165369	ger.dat v.tv
-1.763722	ger.dat v.tv.aor.p3.sg
-1.763722	ger.dat v.tv.ifi.p3.sg
-2.165369	ger.dat v.tv.pass
-2.165369	ger.dat v.tv.pass.aor.p3.sg
-2.165369	ger.dat v.tv.pass.ifi.p3.sg
-2.165369	ger.dat v.tv.pass.past.p3.sg
-2.165369	ger.dat vaux.pih.p3.sg
-1.336065	ger.gen "ғана".postadv
-1.336065	ger.gen adj
-1.336065	ger.gen adv
-1.336065	ger.gen cm
-0.9344182	ger.gen n.pl.px3sp.abl
-1.336065	ger.gen n.px3sp.acc
-1.336065	ger.gen n.px3sp.loc
-1.131945	ger.ins cm
-1.131945	ger.ins gna_perf
-1.131945	ger.ins v.iv
-1.131945	ger.ins v.iv.aor.p3.sg
-1.131945	ger.ins v.iv.ifi.p3.sg
-1.387217	ger.loc adj
-1.387217	ger.loc det.dem
-0.5604963	ger.loc n.nom
-0.7851636	ger.loc sent
-2.450008	ger.nom "да".postadv
-2.450008	ger.nom "е".cop.aor.p3.pl
-1.623287	ger.nom adj
-2.048362	ger.nom adv
-1.847955	ger.nom advl
-2.048362	ger.nom attr
-0.9572437	ger.nom cm
-2.450008	ger.nom cnjcoo
-2.450008	ger.nom cnjsub
-2.048362	ger.nom cop.ifi.p3.sg
-2.450008	ger.nom det.qnt
-2.450008	ger.nom gna_cond.p3.sg
-2.450008	ger.nom gna_perf
-2.450008	ger.nom guio
-2.450008	ger.nom n.dat
-2.450008	ger.nom n.loc
-2.450008	ger.nom n.nom
-1.847955	ger.nom n.pl.px3sp.acc
-2.450008	ger.nom n.pl.px3sp.dat
-2.450008	ger.nom n.pl.px3sp.ins
-2.450008	ger.nom n.pl.px3sp.loc
-2.450008	ger.nom n.pl.px3sp.nom
-2.450008	ger.nom n.px3sp.abl
-1.366146	ger.nom n.px3sp.acc
-1.847955	ger.nom n.px3sp.dat
-2.450008	ger.nom n.px3sp.gen
-2.450008	ger.nom n.px3sp.ins
-1.278572	ger.nom n.px3sp.loc
-0.9572437	ger.nom n.px3sp.nom
-1.040409	ger.nom post
-2.450008	ger.nom prn.pers.dat
-1.143366	ger.nom sent
-2.450008	ger.nom v.iv
-2.450008	ger.nom v.iv.ifi.p3.sg
-2.450008	ger.nom v.tv.aor.p3.sg
-2.048362	ger.nom v.tv.ifi.p3.sg
-2.450008	ger.nom v.tv.pass
-2.450008	ger.nom v.tv.pass.ifi.p3.sg
-0.4329748	ger.pl.px3sp.dat post
-0.4329748	ger.px2sg.dat cm
-0.7340047	ger.px2sg.nom cm
-0.7340047	ger.px2sg.nom n.px3sp.nom
-0.7340047	ger.px3sp.abl det.qnt
-0.7340047	ger.px3sp.abl v.iv.past.p3.sg
-1.035035	ger.px3sp.acc adv
-1.035035	ger.px3sp.acc gna_perf
-1.035035	ger.px3sp.acc v.tv
-1.035035	ger.px3sp.acc v.tv.aor.p3.sg
-1.393056	ger.px3sp.dat adj
-1.794703	ger.px3sp.dat attr
-1.794703	ger.px3sp.dat cm
-1.794703	ger.px3sp.dat gna_perf
-0.7108402	ger.px3sp.dat n.nom
-1.794703	ger.px3sp.dat np.top
-1.794703	ger.px3sp.dat post
-1.794703	ger.px3sp.dat prn.pers.gen
-1.794703	ger.px3sp.dat v.iv
-0.9679816	ger.px3sp.dat v.iv.aor.p3.sg
-1.794703	ger.px3sp.dat v.tv.aor.p3.pl
-1.393056	ger.px3sp.dat v.tv.ifi.p3.sg
-1.794703	ger.px3sp.dat v.tv.pass.ifi.p3.sg
-1.035035	ger.px3sp.gen adj
-1.035035	ger.px3sp.gen n.px3sp.gen
-0.6333882	ger.px3sp.gen n.px3sp.nom
-1.211126	ger.px3sp.ins abbr
-1.211126	ger.px3sp.ins cm
-1.211126	ger.px3sp.ins gpr_past
-1.211126	ger.px3sp.ins v.tv.pass
-1.211126	ger.px3sp.ins v.tv.pass.aor.p3.sg
-1.211126	ger.px3sp.ins v.tv.pass.past.p3.sg
-0.4329748	ger.px3sp.loc adj
-1.755194	ger.px3sp.nom "да".postadv
-1.755194	ger.px3sp.nom "е".cop.aor.p3.sg
-1.353548	ger.px3sp.nom adj
-1.755194	ger.px3sp.nom adv
-1.15314	ger.px3sp.nom cm
-0.9284731	ger.px3sp.nom cnjcoo
-1.15314	ger.px3sp.nom n.gen
-1.755194	ger.px3sp.nom n.pl.px3sp.abl
-1.755194	ger.px3sp.nom n.px3sp.loc
-1.755194	ger.px3sp.nom num
-1.353548	ger.px3sp.nom post
-1.755194	ger.px3sp.nom prn.dem.acc
-0.4329748	ger_abs.nom cm
-0.4329748	ger_abs.px3sp.abl adj
-0.5084495	ger_impf.px2sg.nom adj
-0.910096	ger_impf.px2sg.nom subst.px3sp.nom
-1.211126	ger_impf.px3sp.acc cnjcoo
-1.211126	ger_impf.px3sp.acc gna_perf
-1.211126	ger_impf.px3sp.acc v.tv
-0.6090724	ger_impf.px3sp.acc v.tv.ifi.p3.sg
-0.910096	ger_impf.px3sp.dat cm
-0.910096	ger_impf.px3sp.dat gna_perf
-0.910096	ger_impf.px3sp.dat v.tv
-0.910096	ger_impf.px3sp.nom "е".cop.aor.p3.sg
-0.910096	ger_impf.px3sp.nom post
-0.910096	ger_impf.px3sp.nom prn.dem.abl
-1.387217	ger_past.abl "ғана".postadv
-0.1429374	ger_past.abl post
-1.235448	ger_past.loc adj
-0.6630434	ger_past.loc cm
-1.637095	ger_past.loc guio
-1.637095	ger_past.loc lquot
-1.637095	ger_past.loc np.ant.m.gen
-1.035041	ger_past.loc num
-1.637095	ger_past.loc prn.pers.acc
-1.637095	ger_past.loc rpar
-1.637095	ger_past.loc rquot
-1.546918	ger_past.nom adj
-1.546918	ger_past.nom cm
-0.9448645	ger_past.nom cop.ifi.p3.sg
-1.546918	ger_past.nom gpr_past
-1.546918	ger_past.nom n.pl.nom
-1.546918	ger_past.nom n.px1pl.loc
-1.145272	ger_past.nom n.px3sp.loc
-1.546918	ger_past.nom post
-1.546918	ger_past.nom v.tv
-1.546918	ger_past.nom vaux.pih.p3.sg
-0.7340047	ger_past.pl.acc adv
-0.7340047	ger_past.pl.acc cm
-0.910096	ger_past.pl.gen n.px3sp.loc
-0.910096	ger_past.pl.gen n.px3sp.nom
-0.910096	ger_past.pl.gen prn.qnt.px3sp.dat
-0.4329748	ger_past.pl.px3sp.nom guio
-0.4329748	ger_past.px1pl.nom guio
-0.4329748	ger_past.px1sg.nom det.ref
-1.373751	ger_past.px3sp.acc cm
-1.775397	ger_past.px3sp.acc det.ref
-1.775397	ger_past.px3sp.acc ger.nom
-1.173344	ger_past.px3sp.acc gna_perf
-1.775397	ger_past.px3sp.acc gpr_past
-1.775397	ger_past.px3sp.acc n.px3sp.nom
-1.373751	ger_past.px3sp.acc prc_impf
-0.6039613	ger_past.px3sp.acc v.tv
-1.173344	ger_past.px3sp.acc v.tv.aor.p3.sg
-1.775397	ger_past.px3sp.acc v.tv.pih.p3.sg
-0.3323582	ger_past.px3sp.ins cm
-1.031328	ger_past.px3sp.nom "е".cop.aor.p3.sg
-1.031328	ger_past.px3sp.nom adj
-1.432975	ger_past.px3sp.nom adv
-1.432975	ger_past.px3sp.nom cm
-1.432975	ger_past.px3sp.nom cnjcoo
-1.432975	ger_past.px3sp.nom n.nom
-1.432975	ger_past.px3sp.nom prn.pers.gen
-1.432975	ger_past.px3sp.nom v.iv.aor.p3.sg
-0.4329748	ger_past.px3sp.sim cm
-0.4329748	ger_past.sim n.nom
-0.2083138	ger_perf.abl cm
-1.035035	ger_perf.nom gna_perf
-1.035035	ger_perf.nom gpr_fut
-0.6333882	ger_perf.nom v.iv
-1.131945	ger_perf.px3sp.acc cnjcoo
-1.131945	ger_perf.px3sp.acc ger.dat
-1.131945	ger_perf.px3sp.acc n.dat
-1.131945	ger_perf.px3sp.acc v.tv
-1.131945	ger_perf.px3sp.acc v.tv.aor.p3.sg
-0.7340047	ger_perf.px3sp.loc cm
-0.7340047	ger_perf.px3sp.loc sent
-1.035035	ger_perf.px3sp.nom attr
-1.035035	ger_perf.px3sp.nom cm
-1.035035	ger_perf.px3sp.nom n.px3sp.loc
-1.035035	ger_perf.px3sp.nom sent
-1.035035	gna_cond.p1.pl "е".cop.aor.p3.sg
-1.035035	gna_cond.p1.pl adj
-0.6333882	gna_cond.p1.pl cm
-0.7302982	gna_cond.p2.frm.sg cm
-1.131945	gna_cond.p2.frm.sg rquot
-0.7302982	gna_cond.p2.frm.sg sent
-1.663424	gna_cond.p3.sg adj
-0.1706593	gna_cond.p3.sg cm
-1.663424	gna_cond.p3.sg guio
-1.261777	gna_cond.p3.sg np.ant.m.dat
-2.935402	gna_perf "да".postadv
-2.935402	gna_perf "лы".post
-1.763966	gna_perf adj
-2.935402	gna_perf advl
-2.333348	gna_perf attr
-0.2656985	gna_perf cm
-2.533755	gna_perf cop.aor.p1.sg
-2.935402	gna_perf det.qnt
-2.935402	gna_perf ger.acc
-2.533755	gna_perf ger.dat
-2.935402	gna_perf ger.loc
-2.935402	gna_perf ger.px3sp.ins
-2.935402	gna_perf ger_impf.px3sp.dat
-1.961351	gna_perf ger_past.loc
-2.935402	gna_perf ger_past.nom
-2.935402	gna_perf ger_past.px3sp.acc
-2.935402	gna_perf ger_perf.abl
-2.935402	gna_perf gna_cond.p1.pl
-2.935402	gna_perf gna_cond.p3.sg
-2.108681	gna_perf gna_perf
-2.108681	gna_perf gpr_past
-2.533755	gna_perf guio
-2.533755	gna_perf n
-2.935402	gna_perf n.dat
-2.935402	gna_perf n.gen
-1.628759	gna_perf n.nom
-2.333348	gna_perf n.pl.nom
-2.935402	gna_perf n.px3sp.nom
-2.935402	gna_perf np.ant.m.acc
-2.333348	gna_perf np.ant.m.nom
-2.935402	gna_perf np.cog.m.gen
-2.533755	gna_perf np.top
-2.533755	gna_perf np.top.loc
-2.935402	gna_perf np.top.nom
-2.533755	gna_perf num
-1.961351	gna_perf prc_impf
-2.333348	gna_perf prc_perf
-2.935402	gna_perf prn.pers.nom
-2.533755	gna_perf rquot
-2.533755	gna_perf sent
-2.935402	gna_perf subst.dat
-1.574237	gna_perf v.iv
-2.935402	gna_perf v.iv.aor.p3.sg
-1.961351	gna_perf v.iv.ifi.p3.sg
-2.533755	gna_perf v.iv.neg.imp.p2.sg
-1.312769	gna_perf v.tv
-2.108681	gna_perf v.tv.aor.p3.sg
-2.935402	gna_perf v.tv.ifi.p3.pl
-1.628759	gna_perf v.tv.ifi.p3.sg
-2.935402	gna_perf v.tv.neg.imp.p2.frm.sg
-2.333348	gna_perf v.tv.pass
-2.333348	gna_perf v.tv.pass.ifi.p3.sg
-2.935402	gna_perf v.tv.past.p3.sg
-2.533755	gna_perf vaux
-1.131945	gpr_fut cm
-1.131945	gpr_fut cop.ifi.p1.pl
-1.131945	gpr_fut cop.ifi.p3.sg
-1.131945	gpr_fut n.px1sg.nom
-1.131945	gpr_fut np.ant.m.px1sg.nom
-2.211126	gpr_impf "е".cop.aor.p3.sg
-2.211126	gpr_impf abbr
-0.8499616	gpr_impf adj
-1.809479	gpr_impf attr
-2.211126	gpr_impf cm
-2.211126	gpr_impf det.qnt
-2.211126	gpr_impf lpar
-2.211126	gpr_impf n
-1.609072	gpr_impf n.acc
-2.211126	gpr_impf n.dat
-0.6820768	gpr_impf n.nom
-2.211126	gpr_impf n.pl.acc
-2.211126	gpr_impf n.pl.dat
-1.809479	gpr_impf n.pl.gen
-2.211126	gpr_impf n.pl.loc
-1.03969	gpr_impf n.pl.nom
-2.211126	gpr_impf n.px3sp.acc
-2.211126	gpr_impf n.px3sp.nom
-2.211126	gpr_impf np.ant.m.dat
-2.211126	gpr_impf np.ant.m.loc
-2.211126	gpr_impf np.ant.m.nom
-1.609072	gpr_impf num
-1.609072	gpr_impf sent
-2.211126	gpr_impf v.iv.past.p3.sg
-2.441261	gpr_past "да".cnjcoo
-2.842908	gpr_past "е".cop.aor.p3.pl
-1.671472	gpr_past "е".cop.aor.p3.sg
-2.842908	gpr_past "лы".post
-2.240854	gpr_past abbr
-0.7817898	gpr_past adj
-2.441261	gpr_past adv
-1.759045	gpr_past attr
-2.441261	gpr_past cm
-2.842908	gpr_past cop.ifi.p3.sg
-2.842908	gpr_past det.dem
-2.842908	gpr_past det.qnt
-2.842908	gpr_past ger.nom
-2.842908	gpr_past gpr_fut
-2.842908	gpr_past guio
-2.240854	gpr_past n
-2.441261	gpr_past n.abl
-2.240854	gpr_past n.acc
-2.441261	gpr_past n.dat
-1.868857	gpr_past n.gen
-2.842908	gpr_past n.ins
-1.868857	gpr_past n.loc
-0.8983709	gpr_past n.nom
-2.842908	gpr_past n.pl.abl
-2.842908	gpr_past n.pl.dat
-1.759045	gpr_past n.pl.gen
-2.842908	gpr_past n.pl.ins
-2.842908	gpr_past n.pl.loc
-0.9554545	gpr_past n.pl.nom
-1.868857	gpr_past n.pl.px3sp.acc
-2.441261	gpr_past n.pl.px3sp.loc
-2.016187	gpr_past n.pl.px3sp.nom
-2.842908	gpr_past n.px1pl.acc
-2.842908	gpr_past n.px1sg.acc
-2.441261	gpr_past n.px3sp.abl
-2.016187	gpr_past n.px3sp.acc
-2.240854	gpr_past n.px3sp.dat
-2.441261	gpr_past n.px3sp.ins
-1.868857	gpr_past n.px3sp.loc
-1.280373	gpr_past n.px3sp.nom
-2.842908	gpr_past np.ant.m.dat
-2.842908	gpr_past np.ant.m.ins
-1.389739	gpr_past np.ant.m.nom
-2.842908	gpr_past np.cog.mf.gen
-2.441261	gpr_past np.cog.mf.nom
-2.842908	gpr_past np.top
-2.016187	gpr_past np.top.nom
-1.759045	gpr_past num
-2.842908	gpr_past num.itg
-2.441261	gpr_past num.ord
-2.842908	gpr_past prn.pers.nom
-2.441261	gpr_past rpar
-2.240854	gpr_past sent
-2.842908	gpr_past subst.pl.abl
-2.842908	gpr_past subst.pl.gen
-2.842908	gpr_past t.tv
-2.441261	gpr_past v.iv.pih.p3.sg
-2.842908	gpr_past v.tv
-2.842908	gpr_past v.tv.neg.imp.p2.sg
-1.211126	gpr_pot "е".cop.aor.p3.sg
-1.211126	gpr_pot adj
-0.3844051	gpr_pot n.nom
-0.4329748	gpr_ppot.abl adj
-0.4329748	gpr_ppot.nom n.px3sp.acc
-2.6042	guio "е".cop.aor.p3.pl
-1.761567	guio "е".cop.aor.p3.sg
-2.179126	guio "лы".post
-2.403793	guio abbr
-3.005846	guio abbr.gen
-2.6042	guio abl
-1.103403	guio adj
-3.005846	guio adv
-1.761567	guio attr
-2.6042	guio cnjcoo
-3.005846	guio det.ind
-2.403793	guio det.qnt
-3.005846	guio det.ref
-3.005846	guio gen
-2.6042	guio ger.gen
-2.6042	guio ger.nom
-2.403793	guio gna_perf
-3.005846	guio gpr_past
-3.005846	guio lpar
-1.644682	guio lquot
-2.179126	guio n
-3.005846	guio n.abl
-2.6042	guio n.acc
-2.6042	guio n.dat
-1.761567	guio n.gen
-2.179126	guio n.loc
-0.7702622	guio n.nom
-2.403793	guio n.pl.dat
-2.403793	guio n.pl.gen
-2.6042	guio n.pl.loc
-1.761567	guio n.pl.nom
-3.005846	guio n.pl.px3sp.abl
-1.921984	guio n.pl.px3sp.acc
-2.6042	guio n.pl.px3sp.dat
-3.005846	guio n.pl.px3sp.gen
-3.005846	guio n.pl.px3sp.loc
-1.921984	guio n.pl.px3sp.nom
-3.005846	guio n.px1pl.gen
-2.6042	guio n.px3sp.abl
-2.6042	guio n.px3sp.acc
-2.6042	guio n.px3sp.dat
-3.005846	guio n.px3sp.ins
-2.031795	guio n.px3sp.loc
-2.031795	guio n.px3sp.nom
-1.83441	guio np.ant.m.nom
-2.179126	guio np.top
-3.005846	guio np.top.gen
-3.005846	guio np.top.loc
-1.83441	guio np.top.nom
-0.5580321	guio num
-2.6042	guio num.ord
-3.005846	guio num.percent
-3.005846	guio prc_impf
-3.005846	guio prc_perf
-3.005846	guio prn.dem.loc
-3.005846	guio prn.dem.pl.gen
-3.005846	guio prn.recip.px3sp.ins
-3.005846	guio prn.ref.px3pl.acc
-2.6042	guio sent
-2.6042	guio subst.px3sp.nom
-2.6042	guio v.iv
-3.005846	guio v.iv.imp.p2.sg
-1.83441	guio v.tv
-3.005846	guio v.tv.aor.p3.sg
-3.005846	guio v.tv.pass
-0.1942104	ij cm
-1.278073	ij sent
-0.9448622	lpar abbr
-1.223168	lpar adj
-1.990069	lpar adv
-1.990069	lpar attr
-2.81679	lpar cm
-2.81679	lpar cnjcoo
-2.81679	lpar det.ind
-2.81679	lpar gpr_past
-1.732928	lpar guio
-1.287741	lpar lquot
-2.415143	lpar n
-2.81679	lpar n.abl
-2.81679	lpar n.gen
-1.032097	lpar n.nom
-2.81679	lpar n.pl.ins
-2.81679	lpar n.pl.loc
-1.732928	lpar n.pl.nom
-2.81679	lpar n.pl.px3sp.acc
-2.81679	lpar n.px3sp.acc
-2.81679	lpar n.px3sp.loc
-1.990069	lpar n.px3sp.nom
-2.415143	lpar np.al.nom
-1.990069	lpar np.ant.m.nom
-2.81679	lpar np.cog.mf.nom
-2.81679	lpar np.top
-2.81679	lpar np.top.loc
-1.407192	lpar np.top.nom
-0.4570822	lpar num
-2.81679	lpar num.ord
-1.990069	lpar num.percent
-1.57251	lpar sent
-2.81679	lpar subst.abl
-2.81679	lpar subst.sim
-2.81679	lpar v.iv
-1.253654	lquot adj
-1.788097	lquot attr
-2.614818	lquot cnjcoo
-2.614818	lquot det.ind
-2.614818	lquot ger.acc
-2.614818	lquot gna_perf
-2.614818	lquot gpr_past
-2.614818	lquot guio
-2.213172	lquot n
-2.213172	lquot n.abl
-2.213172	lquot n.dat
-2.213172	lquot n.gen
-2.614818	lquot n.loc
-0.9152362	lquot n.nom
-2.614818	lquot n.pl.loc
-2.614818	lquot n.pl.nom
-2.614818	lquot n.px2sg.nom
-2.614818	lquot n.px3sp.dat
-2.213172	lquot n.px3sp.nom
-1.122054	lquot np.al.nom
-2.213172	lquot np.ant.dat
-2.614818	lquot np.ant.f.gen
-2.012765	lquot np.ant.f.nom
-2.614818	lquot np.ant.m.acc
-2.614818	lquot np.ant.m.dat
-2.614818	lquot np.ant.m.gen
-1.052283	lquot np.ant.m.nom
-2.614818	lquot np.ant.m.pl.px1sg.dat
-2.614818	lquot np.ant.m.px1sg.nom
-2.012765	lquot np.cog.mf.nom
-2.614818	lquot np.top
-2.213172	lquot np.top.gen
-2.614818	lquot np.top.nom
-1.788097	lquot num
-2.614818	lquot prc_perf
-2.213172	lquot prn.itg.nom
-2.614818	lquot prn.pers.abl
-0.6080906	lquot sent
-2.213172	lquot v.iv
-2.213172	lquot v.tv
-0.4329748	n cm
-2.611952	n.abl "-ақ".postadv
-2.611952	n.abl "е".cop.aor.p3.pl
-2.611952	n.abl "ғана".postadv
-2.611952	n.abl abbr
-1.440516	n.abl adj
-2.611952	n.abl adv
-2.611952	n.abl advl
-2.611952	n.abl attr
-1.785231	n.abl cm
-2.210305	n.abl cnjcoo
-2.611952	n.abl det.ref
-2.611952	n.abl ger.acc
-2.611952	n.abl ger.nom
-2.611952	n.abl ger.px3sp.dat
-2.611952	n.abl ger_impf.px3sp.acc
-2.611952	n.abl ger_past.abl
-0.9365355	n.abl gna_perf
-2.210305	n.abl gpr_impf
-1.6379	n.abl gpr_past
-2.611952	n.abl guio
-2.210305	n.abl lpar
-1.440516	n.abl n.dat
-2.611952	n.abl n.gen
-2.210305	n.abl n.loc
-1.528089	n.abl n.nom
-2.210305	n.abl n.px3sp.acc
-2.611952	n.abl np.top
-2.611952	n.abl num
-2.210305	n.abl num.coll
-2.611952	n.abl num.ord
-0.989319	n.abl post
-2.611952	n.abl prc_impf
-2.611952	n.abl prc_perf
-2.611952	n.abl rpar
-2.611952	n.abl rquot
-2.210305	n.abl sent
-1.785231	n.abl subst.nom
-1.528089	n.abl v.iv
-1.785231	n.abl v.iv.aor.p3.sg
-2.611952	n.abl v.iv.fut.p3.sg
-2.611952	n.abl v.iv.ifi.p3.sg
-2.611952	n.abl v.iv.past.p3.sg
-0.9123696	n.abl v.tv
-2.009898	n.abl v.tv.ifi.p3.sg
-2.611952	n.abl v.tv.neg
-1.528089	n.abl v.tv.pass
-2.009898	n.abl v.tv.pass.aor.p3.sg
-2.382365	n.acc "да".cnjcoo
-2.382365	n.acc "да".postadv
-2.382365	n.acc "ғана".postadv
-2.382365	n.acc adj
-1.555644	n.acc adv
-2.382365	n.acc adv.itg
-2.382365	n.acc attr
-2.382365	n.acc cm
-2.382365	n.acc det.ref
-2.382365	n.acc ger.dat
-2.382365	n.acc ger.gen
-1.780311	n.acc ger.nom
-2.382365	n.acc ger.pl.px3sp.dat
-2.382365	n.acc ger_impf.px3sp.nom
-1.980718	n.acc gna_cond.p3.sg
-1.298502	n.acc gna_perf
-2.382365	n.acc gpr_impf
-2.382365	n.acc gpr_past
-2.382365	n.acc lpar
-2.382365	n.acc n
-2.382365	n.acc n.abl
-1.408313	n.acc n.dat
-1.980718	n.acc n.nom
-2.382365	n.acc n.pl.px3sp.gen
-2.382365	n.acc n.px3sp.abl
-2.382365	n.acc np.ant.m.nom
-2.382365	n.acc np.top.loc
-1.980718	n.acc np.top.nom
-1.298502	n.acc num
-1.980718	n.acc num.ord
-2.382365	n.acc prc_impf
-2.382365	n.acc prc_perf
-2.382365	n.acc prn.dem.pl.abl
-1.780311	n.acc sent
-2.382365	n.acc subst.px3sp.ins
-1.780311	n.acc v.iv
-2.382365	n.acc v.iv.aor.p3.sg
-0.7887422	n.acc v.tv
-1.555644	n.acc v.tv.aor.p3.sg
-1.780311	n.acc v.tv.ifi.p3.sg
-2.382365	n.acc v.tv.imp.p2.frm.sg
-2.382365	n.acc v.tv.past.p3.sg
-0.4329748	n.ant.m.nom np.cog.mf.nom
-2.820364	n.dat "е".cop.aor.p3.pl
-2.820364	n.dat abbr
-1.170539	n.dat adj
-2.218311	n.dat adv
-2.820364	n.dat advl
-1.736502	n.dat attr
-1.4592	n.dat cm
-1.993644	n.dat cnjcoo
-2.820364	n.dat det.ind
-1.846313	n.dat ger.nom
-2.820364	n.dat ger.px3sp.dat
-2.820364	n.dat ger.px3sp.ins
-2.418718	n.dat ger.px3sp.nom
-2.820364	n.dat ger_past.loc
-2.820364	n.dat ger_past.nom
-2.820364	n.dat ger_past.px3sp.acc
-2.820364	n.dat ger_past.px3sp.ins
-2.820364	n.dat ger_perf.px3sp.acc
-2.820364	n.dat gna_cond.p1.pl
-1.144948	n.dat gna_perf
-2.418718	n.dat gpr_impf
-1.576085	n.dat gpr_past
-1.993644	n.dat lpar
-1.846313	n.dat n
-2.820364	n.dat n.acc
-2.820364	n.dat n.dat
-1.4592	n.dat n.nom
-2.820364	n.dat n.pl.nom
-2.418718	n.dat n.px3sp.acc
-2.820364	n.dat n.px3sp.dat
-2.820364	n.dat n.px3sp.gen
-2.820364	n.dat n.px3sp.loc
-2.418718	n.dat n.px3sp.nom
-2.820364	n.dat np.cog.mf.nom
-2.820364	n.dat np.top
-2.820364	n.dat num
-1.410766	n.dat post
-1.846313	n.dat prc_impf
-1.846313	n.dat prc_perf
-2.820364	n.dat subst.nom
-2.820364	n.dat subst.pl.nom
-1.097891	n.dat v.iv
-1.410766	n.dat v.iv.aor.p3.sg
-2.820364	n.dat v.iv.ifi.p1.sg
-1.367195	n.dat v.iv.ifi.p3.sg
-1.846313	n.dat v.iv.past.p3.sg
-1.097891	n.dat v.tv
-2.820364	n.dat v.tv.aor.p3.pl
-2.218311	n.dat v.tv.aor.p3.sg
-2.820364	n.dat v.tv.fut.p3.sg
-1.846313	n.dat v.tv.ifi.p3.sg
-2.820364	n.dat v.tv.neg
-1.410766	n.dat v.tv.pass
-2.218311	n.dat v.tv.pass.aor.p3.sg
-2.820364	n.dat v.tv.pass.ifi.p3.sg
-2.418718	n.dat v.tv.past.p3.sg
-2.820364	n.dat v.tv.pih.p3.sg
-2.869137	n.gen "-ақ".postadv
-2.869137	n.gen "да".postadv
-2.467491	n.gen abbr
-0.6999576	n.gen adj
-1.785275	n.gen adv
-2.869137	n.gen adv.itg
-1.624858	n.gen attr
-2.467491	n.gen cnjcoo
-2.467491	n.gen det.dem
-2.869137	n.gen det.ind
-2.869137	n.gen det.qnt
-2.869137	n.gen ger.nom
-2.467491	n.gen ger.px3sp.acc
-2.467491	n.gen ger.px3sp.dat
-2.467491	n.gen ger.px3sp.nom
-2.467491	n.gen gpr_past
-2.869137	n.gen guio
-2.869137	n.gen lpar
-2.042417	n.gen n
-2.869137	n.gen n.abl
-2.869137	n.gen n.dat
-2.869137	n.gen n.loc
-1.169555	n.gen n.nom
-2.467491	n.gen n.pl.px3sp.acc
-1.895086	n.gen n.pl.px3sp.nom
-2.869137	n.gen n.px2sg.loc
-2.467491	n.gen n.px3sp.abl
-1.459539	n.gen n.px3sp.acc
-1.246505	n.gen n.px3sp.dat
-1.785275	n.gen n.px3sp.ins
-1.219312	n.gen n.px3sp.loc
-0.981684	n.gen n.px3sp.nom
-2.869137	n.gen np.cog.mf.nom
-0.981684	n.gen num
-1.895086	n.gen num.ord
-2.267084	n.gen num.percent
-2.869137	n.gen post
-2.869137	n.gen prc_perf
-2.869137	n.gen prn.ref.px3sp.loc
-2.869137	n.gen rpar
-2.869137	n.gen sent
-2.869137	n.gen subst.abl
-2.869137	n.gen subst.px3sp.dat
-1.785275	n.gen subst.px3sp.nom
-2.267084	n.gen v.iv
-2.869137	n.gen v.iv.neg
-2.869137	n.gen v.tv
-1.895086	n.gen v.tv.pass
-2.131945	n.ins "е".cop.aor.p3.sg
-1.730298	n.ins adj
-2.131945	n.ins attr
-1.730298	n.ins cm
-2.131945	n.ins ger.dat
-2.131945	n.ins ger.nom
-2.131945	n.ins ger_past.nom
-2.131945	n.ins ger_past.px3sp.acc
-1.529891	n.ins gna_perf
-2.131945	n.ins gpr_impf
-1.305224	n.ins gpr_past
-2.131945	n.ins n
-2.131945	n.ins n.dat
-1.305224	n.ins n.nom
-2.131945	n.ins n.px3sp.acc
-2.131945	n.ins n.px3sp.nom
-2.131945	n.ins np.al.nom
-2.131945	n.ins np.ant.m.nom
-1.730298	n.ins num
-1.730298	n.ins prc_perf
-2.131945	n.ins v.iv
-2.131945	n.ins v.iv.aor.p3.pl
-1.048082	n.ins v.tv
-2.131945	n.ins v.tv.aor.p3.sg
-2.131945	n.ins v.tv.fut_plan.p3.sg
-0.9605086	n.ins v.tv.pass
-2.131945	n.ins v.tv.pass.aor.p3.sg
-2.300841	n.loc abbr
-0.8988893	n.loc adj
-1.875767	n.loc adv
-2.702488	n.loc advl
-1.458208	n.loc attr
-1.728436	n.loc cm
-2.702488	n.loc cnjcoo
-2.702488	n.loc cop.ifi.p3.sg
-2.300841	n.loc det.dem
-2.702488	n.loc det.qnt
-2.300841	n.loc det.ref
-2.702488	n.loc ger.nom
-2.702488	n.loc ger.px3sp.nom
-2.702488	n.loc ger_past.pl.gen
-2.300841	n.loc ger_past.px3sp.acc
-2.100434	n.loc gna_perf
-1.458208	n.loc gpr_past
-2.702488	n.loc guio
-1.875767	n.loc n
-2.702488	n.loc n.acc
-2.702488	n.loc n.dat
-2.300841	n.loc n.gen
-1.027072	n.loc n.nom
-2.702488	n.loc n.pl.dat
-1.875767	n.loc n.pl.gen
-2.100434	n.loc n.pl.nom
-2.702488	n.loc n.px3sp.gen
-2.702488	n.loc np.ant.m.dat
-2.702488	n.loc np.ant.m.gen
-1.531052	n.loc np.ant.m.nom
-2.702488	n.loc np.ant.m.px2sg.nom
-2.300841	n.loc np.cog.mf.nom
-2.702488	n.loc np.gen
-2.100434	n.loc np.top
-2.702488	n.loc np.top.abl
-2.300841	n.loc np.top.acc
-2.702488	n.loc np.top.dat
-2.702488	n.loc np.top.gen
-2.702488	n.loc np.top.ins
-1.395845	n.loc np.top.nom
-1.618625	n.loc num
-2.300841	n.loc prc_impf
-2.100434	n.loc prc_perf
-2.702488	n.loc prn.dem.pl.nom
-2.300841	n.loc prn.pers.acc
-2.702488	n.loc prn.pers.gen
-2.702488	n.loc prn.qnt.pl.nom
-2.702488	n.loc rquot
-2.300841	n.loc sent
-2.702488	n.loc subst.loc
-2.702488	n.loc subst.pl.gen
-2.702488	n.loc subst.pl.nom
-1.292889	n.loc v.iv
-2.702488	n.loc v.iv.aor.p3.sg
-2.702488	n.loc v.iv.ifi.p3.sg
-2.702488	n.loc v.iv.neg.aor.p3.sg
-2.300841	n.loc v.iv.past.p3.sg
-1.618625	n.loc v.tv
-1.875767	n.loc v.tv.pass
-2.702488	n.loc v.tv.pass.ifi.p3.sg
-2.702488	n.loc vaux.pres.p3.sg
-2.661956	n.nom "да".postadv
-3.234361	n.nom "е".cop.aor.p3.pl
-2.042385	n.nom "е".cop.aor.p3.sg
-2.809287	n.nom "лы".post
-2.809287	n.nom "ғана".postadv
-3.636008	n.nom "ғой".mod_ass
-2.391728	n.nom abbr
-1.691471	n.nom adj
-2.661956	n.nom adv
-3.636008	n.nom advl
-1.719075	n.nom attr
-1.11145	n.nom cm
-1.436055	n.nom cnjcoo
-3.636008	n.nom cop
-3.033954	n.nom cop.ifi.p3.sg
-3.033954	n.nom det.dem
-3.636008	n.nom det.neg
-3.234361	n.nom det.qnt
-2.661956	n.nom ger.acc
-2.329365	n.nom ger.dat
-3.636008	n.nom ger.gen
-3.636008	n.nom ger.ins
-3.033954	n.nom ger.loc
-1.891788	n.nom ger.nom
-3.636008	n.nom ger.px3sp.abl
-3.234361	n.nom ger.px3sp.acc
-3.033954	n.nom ger.px3sp.dat
-3.234361	n.nom ger.px3sp.gen
-3.636008	n.nom ger.px3sp.ins
-2.809287	n.nom ger.px3sp.nom
-3.636008	n.nom ger_abs.px3sp.abl
-3.636008	n.nom ger_fut.px3sp.loc
-3.636008	n.nom ger_impf.px3sp.acc
-3.636008	n.nom ger_impf.px3sp.dat
-3.234361	n.nom ger_past.abl
-3.033954	n.nom ger_past.loc
-3.234361	n.nom ger_past.nom
-3.234361	n.nom ger_past.pl.acc
-3.636008	n.nom ger_past.px1pl.nom
-3.234361	n.nom ger_past.px3sp.acc
-3.234361	n.nom ger_past.px3sp.nom
-3.636008	n.nom ger_past.px3sp.sim
-3.234361	n.nom ger_perf.abl
-3.636008	n.nom ger_perf.px3sp.loc
-3.636008	n.nom gna_cond.p1.sg
-3.234361	n.nom gna_cond.p2.frm.sg
-3.033954	n.nom gna_cond.p3.sg
-1.653099	n.nom gna_perf
-3.636008	n.nom gpr_fut
-2.274843	n.nom gpr_impf
-1.986182	n.nom gpr_past
-2.661956	n.nom gpr_pot
-1.414328	n.nom guio
-1.705054	n.nom lpar
-3.234361	n.nom lquot
-2.464571	n.nom n
-3.234361	n.nom n.abl
-3.636008	n.nom n.acc
-2.391728	n.nom n.dat
-2.391728	n.nom n.gen
-3.636008	n.nom n.ins
-1.986182	n.nom n.nom
-3.033954	n.nom n.pl.dat
-3.234361	n.nom n.pl.gen
-3.636008	n.nom n.pl.ins
-2.552145	n.nom n.pl.nom
-2.809287	n.nom n.pl.px3sp.abl
-2.226409	n.nom n.pl.px3sp.acc
-2.552145	n.nom n.pl.px3sp.dat
-1.891788	n.nom n.pl.px3sp.gen
-3.234361	n.nom n.pl.px3sp.ins
-2.182838	n.nom n.pl.px3sp.loc
-1.451169	n.nom n.pl.px3sp.nom
-1.87108	n.nom n.px3sp.abl
-1.641026	n.nom n.px3sp.acc
-1.705054	n.nom n.px3sp.dat
-1.436055	n.nom n.px3sp.gen
-2.226409	n.nom n.px3sp.ins
-1.331017	n.nom n.px3sp.loc
-1.107947	n.nom n.px3sp.nom
-3.636008	n.nom np.al.nom
-3.636008	n.nom np.ant.f.pl.px3sp.nom
-3.636008	n.nom np.ant.m.dat
-3.636008	n.nom np.ant.m.gen
-2.182838	n.nom np.ant.m.nom
-3.636008	n.nom np.ant.m.px1sg.nom
-3.636008	n.nom np.cog.m.gen
-3.636008	n.nom np.cog.m.nom
-3.636008	n.nom np.cog.mf.gen
-3.033954	n.nom np.cog.mf.nom
-3.636008	n.nom np.cog.mf.pl.nom
-3.636008	n.nom np.top
-3.636008	n.nom np.top.loc
-3.234361	n.nom np.top.nom
-2.073473	n.nom num
-3.234361	n.nom num.ord
-1.76408	n.nom post
-2.552145	n.nom prc_impf
-2.143243	n.nom prc_perf
-3.636008	n.nom prc_vol.p1.sg
-3.636008	n.nom prn.dem.dat
-3.636008	n.nom prn.pers.dat
-3.636008	n.nom prn.pers.gen
-3.636008	n.nom prn.qnt.px3sp.nom
-3.636008	n.nom prn.ref.px3sp.sim
-1.705054	n.nom rpar
-2.042385	n.nom rquot
-1.62928	n.nom sent
-3.234361	n.nom subst.abl
-3.636008	n.nom subst.acc
-3.636008	n.nom subst.loc
-3.636008	n.nom subst.nom
-3.636008	n.nom subst.pl.nom
-3.636008	n.nom subst.pl.px3sp.ins
-3.636008	n.nom subst.px3sp.abl
-3.636008	n.nom subst.px3sp.ins
-3.636008	n.nom subst.px3sp.nom
-3.636008	n.nom subst.sim
-1.665516	n.nom v.iv
-3.033954	n.nom v.iv.aor.p1.sg
-2.143243	n.nom v.iv.aor.p3.sg
-3.636008	n.nom v.iv.coop
-3.636008	n.nom v.iv.coop.neg
-3.636008	n.nom v.iv.fut_plan.p3.sg
-2.143243	n.nom v.iv.ifi.p3.sg
-3.234361	n.nom v.iv.imp.p2.sg
-3.636008	n.nom v.iv.neg
-3.234361	n.nom v.iv.neg.aor.p3.sg
-3.636008	n.nom v.iv.neg.ifi.p3.sg
-2.552145	n.nom v.iv.past.p3.sg
-3.033954	n.nom v.iv.pih.p3.sg
-1.144319	n.nom v.tv
-3.234361	n.nom v.tv.aor.p3.pl
-2.182838	n.nom v.tv.aor.p3.sg
-3.636008	n.nom v.tv.coop.aor.p3.sg
-3.636008	n.nom v.tv.fut_plan.p3.sg
-1.517506	n.nom v.tv.ifi.p3.sg
-2.809287	n.nom v.tv.neg
-3.636008	n.nom v.tv.neg.aor.p3.sg
-3.636008	n.nom v.tv.neg.ifi.p3.sg
-2.143243	n.nom v.tv.pass
-2.329365	n.nom v.tv.pass.ifi.p3.sg
-2.391728	n.nom v.tv.past.p3.sg
-0.7340047	n.pl gna_cond.p3.sg
-0.7340047	n.pl v.iv
-1.755194	n.pl.abl adj.comp
-1.15314	n.pl.abl cm
-1.755194	n.pl.abl gna_perf
-1.755194	n.pl.abl gpr_impf
-1.755194	n.pl.abl gpr_past
-1.755194	n.pl.abl n.nom
-1.755194	n.pl.abl n.pl.nom
-1.755194	n.pl.abl n.px3sp.acc
-1.755194	n.pl.abl post
-1.755194	n.pl.abl v.iv
-0.9284731	n.pl.abl v.iv.aor.p3.sg
-1.755194	n.pl.abl v.tv
-1.755194	n.pl.abl v.tv.pass
-1.755194	n.pl.abl v.tv.pass.aor.p3.sg
-1.353548	n.pl.abl v.tv.pass.past.p3.sg
-1.512162	n.pl.acc adj
-2.114216	n.pl.acc attr
-1.030354	n.pl.acc cm
-1.712569	n.pl.acc ger.dat
-1.712569	n.pl.acc ger.loc
-2.114216	n.pl.acc ger.nom
-2.114216	n.pl.acc ger.px3sp.nom
-1.512162	n.pl.acc gna_perf
-1.712569	n.pl.acc gpr_past
-2.114216	n.pl.acc n.dat
-2.114216	n.pl.acc n.ins
-1.512162	n.pl.acc n.nom
-2.114216	n.pl.acc num
-2.114216	n.pl.acc prc_impf
-1.712569	n.pl.acc prc_perf
-2.114216	n.pl.acc rquot
-1.712569	n.pl.acc sent
-0.5851668	n.pl.acc v.tv
-2.114216	n.pl.acc v.tv.aor.p3.sg
-2.181163	n.pl.dat "е".cop.aor.p3.pl
-2.181163	n.pl.dat "лы".post
-0.8199984	n.pl.dat adj
-1.354442	n.pl.dat adv
-2.181163	n.pl.dat advl
-1.009727	n.pl.dat cm
-2.181163	n.pl.dat ger.dat
-2.181163	n.pl.dat ger.nom
-2.181163	n.pl.dat ger.px3sp.dat
-2.181163	n.pl.dat ger_past.nom
-1.579109	n.pl.dat gna_perf
-2.181163	n.pl.dat gpr_past
-2.181163	n.pl.dat n
-1.579109	n.pl.dat n.nom
-2.181163	n.pl.dat np.al.nom
-1.579109	n.pl.dat post
-2.181163	n.pl.dat sent
-1.579109	n.pl.dat v.iv
-2.181163	n.pl.dat v.iv.aor.p3.sg
-2.181163	n.pl.dat v.iv.past.p3.sg
-1.579109	n.pl.dat v.tv
-2.181163	n.pl.dat v.tv.ifi.p3.sg
-1.779516	n.pl.dat v.tv.pass
-1.779516	n.pl.dat v.tv.pass.ifi.p3.sg
-1.779516	n.pl.dat v.tv.pass.past.p3.sg
-2.497433	n.pl.gen "е".cop.aor.p3.pl
-2.497433	n.pl.gen "е".cop.aor.p3.sg
-0.9683835	n.pl.gen adj
-2.095786	n.pl.gen adv
-2.497433	n.pl.gen advl
-2.497433	n.pl.gen attr
-1.670712	n.pl.gen cm
-2.497433	n.pl.gen cnjcoo
-2.497433	n.pl.gen det.dem
-1.895379	n.pl.gen ger.px3sp.dat
-2.497433	n.pl.gen ger.px3sp.nom
-2.497433	n.pl.gen gpr_impf
-2.095786	n.pl.gen gpr_past
-2.497433	n.pl.gen lpar
-2.497433	n.pl.gen n
-2.095786	n.pl.gen n.abl
-2.497433	n.pl.gen n.acc
-2.497433	n.pl.gen n.dat
-1.136268	n.pl.gen n.nom
-2.497433	n.pl.gen n.pl.ins
-2.095786	n.pl.gen n.pl.px3sp.acc
-2.497433	n.pl.gen n.pl.px3sp.loc
-2.095786	n.pl.gen n.pl.px3sp.nom
-1.670712	n.pl.gen n.px3sp.abl
-1.895379	n.pl.gen n.px3sp.acc
-1.670712	n.pl.gen n.px3sp.dat
-2.095786	n.pl.gen n.px3sp.ins
-1.895379	n.pl.gen n.px3sp.loc
-0.8220166	n.pl.gen n.px3sp.nom
-2.497433	n.pl.gen np.ant.m.gen
-2.497433	n.pl.gen np.cog.m.nom
-2.497433	n.pl.gen np.top.nom
-1.253153	n.pl.gen num
-1.895379	n.pl.gen subst.dat
-1.523381	n.pl.gen subst.px3sp.nom
-2.095786	n.pl.gen v.iv
-1.895379	n.pl.gen v.tv
-2.095786	n.pl.gen v.tv.pass
-1.332358	n.pl.ins adj
-1.734005	n.pl.ins advl
-1.734005	n.pl.ins ger.dat
-1.734005	n.pl.ins gpr_pot
-1.734005	n.pl.ins lpar
-1.734005	n.pl.ins n.nom
-1.734005	n.pl.ins n.px3sp.nom
-1.332358	n.pl.ins prc_perf
-1.734005	n.pl.ins rpar
-1.734005	n.pl.ins subst.dat
-1.734005	n.pl.ins subst.px3sp.nom
-1.332358	n.pl.ins v.iv.aor.p3.sg
-1.734005	n.pl.ins v.iv.coop.aor.p3.sg
-0.9072838	n.pl.ins v.tv
-1.549842	n.pl.loc adj
-1.549842	n.pl.loc attr
-1.951489	n.pl.loc det.qnt
-1.951489	n.pl.loc ger_past.nom
-1.349435	n.pl.loc gpr_past
-1.951489	n.pl.loc guio
-1.951489	n.pl.loc lquot
-1.951489	n.pl.loc n
-1.951489	n.pl.loc n.gen
-1.951489	n.pl.loc n.loc
-0.9774374	n.pl.loc n.nom
-1.951489	n.pl.loc np.top.gen
-1.951489	n.pl.loc prn.pers.nom
-1.549842	n.pl.loc rpar
-1.549842	n.pl.loc sent
-1.549842	n.pl.loc v.iv
-1.549842	n.pl.loc v.iv.aor.p3.sg
-1.951489	n.pl.loc v.iv.ifi.p3.sg
-1.951489	n.pl.loc v.iv.neg
-1.951489	n.pl.loc v.tv
-1.951489	n.pl.loc vaux.pres.p3.sg
-2.525483	n.pl.nom "да".postadv
-2.325076	n.pl.nom "е".cop.aor.p3.pl
-2.525483	n.pl.nom "е".cop.aor.p3.sg
-2.525483	n.pl.nom abbr
-1.517531	n.pl.nom adj
-2.325076	n.pl.nom adv
-2.525483	n.pl.nom advl
-1.843267	n.pl.nom attr
-1.142436	n.pl.nom cm
-1.142436	n.pl.nom cnjcoo
-2.325076	n.pl.nom det.qnt
-2.525483	n.pl.nom ger.dat
-2.325076	n.pl.nom ger.nom
-2.927129	n.pl.nom ger.px3sp.nom
-2.927129	n.pl.nom ger_perf.px3sp.loc
-2.100408	n.pl.nom gna_perf
-2.927129	n.pl.nom gpr_impf
-1.843267	n.pl.nom guio
-1.565965	n.pl.nom lpar
-2.927129	n.pl.nom lquot
-2.525483	n.pl.nom n
-2.927129	n.pl.nom n.abl
-2.927129	n.pl.nom n.acc
-2.525483	n.pl.nom n.dat
-2.525483	n.pl.nom n.gen
-2.927129	n.pl.nom n.ins
-1.565965	n.pl.nom n.nom
-2.927129	n.pl.nom n.pl.gen
-2.927129	n.pl.nom n.pl.px3sp.acc
-2.525483	n.pl.nom n.pl.px3sp.gen
-2.927129	n.pl.nom n.pl.px3sp.loc
-2.100408	n.pl.nom n.pl.px3sp.nom
-1.953078	n.pl.nom n.px3sp.abl
-2.100408	n.pl.nom n.px3sp.acc
-1.565965	n.pl.nom n.px3sp.dat
-1.517531	n.pl.nom n.px3sp.gen
-1.47396	n.pl.nom n.px3sp.loc
-1.364594	n.pl.nom n.px3sp.nom
-2.927129	n.pl.nom np.ant.m.dat
-2.927129	n.pl.nom np.ant.m.gen
-2.927129	n.pl.nom np.ant.m.nom
-2.525483	n.pl.nom np.cog.mf.nom
-2.325076	n.pl.nom np.top
-2.927129	n.pl.nom np.top.nom
-1.843267	n.pl.nom num
-2.927129	n.pl.nom num.ord
-2.927129	n.pl.nom num.percent
-1.682849	n.pl.nom post
-1.755693	n.pl.nom prc_impf
-1.843267	n.pl.nom prc_perf
-1.517531	n.pl.nom rpar
-2.325076	n.pl.nom rquot
-1.755693	n.pl.nom sent
-2.927129	n.pl.nom subst.dat
-1.843267	n.pl.nom v.iv
-2.927129	n.pl.nom v.iv.aor.p3.pl
-1.953078	n.pl.nom v.iv.aor.p3.sg
-2.927129	n.pl.nom v.iv.ifi.p3.pl
-1.953078	n.pl.nom v.iv.ifi.p3.sg
-2.927129	n.pl.nom v.iv.neg.aor.p3.sg
-1.517531	n.pl.nom v.tv
-2.100408	n.pl.nom v.tv.aor.p3.sg
-2.927129	n.pl.nom v.tv.coop.ifi.p3.sg
-2.100408	n.pl.nom v.tv.ifi.p3.sg
-1.682849	n.pl.nom v.tv.pass
-1.755693	n.pl.nom v.tv.pass.ifi.p3.sg
-2.525483	n.pl.nom v.tv.pass.past.p3.sg
-0.7340047	n.pl.px1sg.dat gpr_past
-0.7340047	n.pl.px1sg.dat v.iv
-1.478486	n.pl.px3sp.abl adj
-1.478486	n.pl.px3sp.abl advl
-1.880133	n.pl.px3sp.abl cm
-1.880133	n.pl.px3sp.abl ger.dat
-1.880133	n.pl.px3sp.abl ger.nom
-1.278079	n.pl.px3sp.abl gna_perf
-1.278079	n.pl.px3sp.abl gpr_past
-1.478486	n.pl.px3sp.abl n.nom
-1.880133	n.pl.px3sp.abl prc_fplan
-1.880133	n.pl.px3sp.abl prc_perf
-1.880133	n.pl.px3sp.abl subst.nom
-0.9060814	n.pl.px3sp.abl v.iv
-1.278079	n.pl.px3sp.abl v.tv
-1.478486	n.pl.px3sp.abl v.tv.pass
-1.209118	n.pl.px3sp.acc adj
-1.541709	n.pl.px3sp.acc advl
-0.9867109	n.pl.px3sp.acc cm
-2.114114	n.pl.px3sp.acc ger.dat
-2.51576	n.pl.px3sp.acc ger.ins
-1.913707	n.pl.px3sp.acc ger.nom
-2.51576	n.pl.px3sp.acc ger.px3sp.nom
-2.51576	n.pl.px3sp.acc gna_cond.p3.sg
-0.9867109	n.pl.px3sp.acc gna_perf
-2.51576	n.pl.px3sp.acc gpr_impf
-2.51576	n.pl.px3sp.acc gpr_past
-2.51576	n.pl.px3sp.acc guio
-1.913707	n.pl.px3sp.acc lpar
-2.51576	n.pl.px3sp.acc lquot
-2.51576	n.pl.px3sp.acc n.abl
-2.51576	n.pl.px3sp.acc n.dat
-1.689039	n.pl.px3sp.acc n.nom
-2.114114	n.pl.px3sp.acc np.ant.m.nom
-2.51576	n.pl.px3sp.acc num
-1.689039	n.pl.px3sp.acc prc_impf
-2.114114	n.pl.px3sp.acc prc_perf
-2.51576	n.pl.px3sp.acc prn.dem.sim.nom
-2.51576	n.pl.px3sp.acc prn.pers.gen
-2.51576	n.pl.px3sp.acc prn.qnt.pl.gen
-2.51576	n.pl.px3sp.acc prn.recip.px3sp.abl
-2.114114	n.pl.px3sp.acc rpar
-2.51576	n.pl.px3sp.acc v.iv
-0.6766546	n.pl.px3sp.acc v.tv
-2.51576	n.pl.px3sp.acc v.tv.aor.p3.pl
-1.913707	n.pl.px3sp.acc v.tv.aor.p3.sg
-1.541709	n.pl.px3sp.acc v.tv.ifi.p3.sg
-2.114114	n.pl.px3sp.acc v.tv.neg
-2.51576	n.pl.px3sp.acc v.tv.neg.past.p3.sg
-1.913707	n.pl.px3sp.acc v.tv.past.p3.sg
-2.001176	n.pl.px3sp.dat abbr
-1.399123	n.pl.px3sp.dat adj
-2.001176	n.pl.px3sp.dat advl
-2.001176	n.pl.px3sp.dat attr
-2.001176	n.pl.px3sp.dat ger.acc
-2.001176	n.pl.px3sp.dat gna_cond.p3.sg
-2.001176	n.pl.px3sp.dat gpr_impf
-1.59953	n.pl.px3sp.dat gpr_past
-2.001176	n.pl.px3sp.dat n
-2.001176	n.pl.px3sp.dat n.acc
-1.174456	n.pl.px3sp.dat n.nom
-2.001176	n.pl.px3sp.dat n.pl
-2.001176	n.pl.px3sp.dat num
-1.027125	n.pl.px3sp.dat post
-2.001176	n.pl.px3sp.dat sent
-2.001176	n.pl.px3sp.dat subst.pl.nom
-2.001176	n.pl.px3sp.dat v.iv
-1.59953	n.pl.px3sp.dat v.iv.aor.p3.sg
-2.001176	n.pl.px3sp.dat v.iv.neg.ifi.p3.sg
-1.59953	n.pl.px3sp.dat v.tv
-2.001176	n.pl.px3sp.dat v.tv.fut_plan.p3.sg
-1.59953	n.pl.px3sp.dat v.tv.pass
-1.59953	n.pl.px3sp.dat v.tv.pass.ifi.p3.sg
-2.336065	n.pl.px3sp.gen "да".postadv
-2.336065	n.pl.px3sp.gen "е".cop.aor.p3.sg
-0.9749004	n.pl.px3sp.gen adj
-2.336065	n.pl.px3sp.gen adv
-1.734011	n.pl.px3sp.gen cm
-2.336065	n.pl.px3sp.gen cnjcoo
-2.336065	n.pl.px3sp.gen ger.px3sp.dat
-2.336065	n.pl.px3sp.gen ger.px3sp.ins
-2.336065	n.pl.px3sp.gen ger_past.px3sp.acc
-2.336065	n.pl.px3sp.gen gna_perf
-1.734011	n.pl.px3sp.gen lpar
-2.336065	n.pl.px3sp.gen n.nom
-1.734011	n.pl.px3sp.gen n.pl.px3sp.acc
-1.934418	n.pl.px3sp.gen n.pl.px3sp.dat
-2.336065	n.pl.px3sp.gen n.pl.px3sp.ins
-2.336065	n.pl.px3sp.gen n.pl.px3sp.loc
-1.509344	n.pl.px3sp.gen n.pl.px3sp.nom
-2.336065	n.pl.px3sp.gen n.px3sp.abl
-1.509344	n.pl.px3sp.gen n.px3sp.acc
-1.934418	n.pl.px3sp.gen n.px3sp.dat
-1.934418	n.pl.px3sp.gen n.px3sp.ins
-1.734011	n.pl.px3sp.gen n.px3sp.loc
-1.029422	n.pl.px3sp.gen n.px3sp.nom
-1.164629	n.pl.px3sp.gen num
-2.336065	n.pl.px3sp.gen prc_impf
-2.336065	n.pl.px3sp.gen prn.pers.dat
-2.336065	n.pl.px3sp.gen subst.abl
-2.336065	n.pl.px3sp.gen subst.pl.px3sp.acc
-2.336065	n.pl.px3sp.gen subst.pl.px3sp.nom
-2.336065	n.pl.px3sp.gen subst.px3sp.abl
-1.362013	n.pl.px3sp.gen subst.px3sp.nom
-1.734011	n.pl.px3sp.gen v.iv
-1.934418	n.pl.px3sp.gen v.tv.pass
-1.235448	n.pl.px3sp.ins adj
-1.235448	n.pl.px3sp.ins cm
-1.637095	n.pl.px3sp.ins det.dem
-1.637095	n.pl.px3sp.ins ger.px3sp.nom
-1.637095	n.pl.px3sp.ins gna_perf
-1.235448	n.pl.px3sp.ins n.nom
-1.637095	n.pl.px3sp.ins n.px3sp.acc
-1.637095	n.pl.px3sp.ins prc_impf
-1.637095	n.pl.px3sp.ins prn.pers.gen
-1.035041	n.pl.px3sp.ins v.iv
-1.637095	n.pl.px3sp.ins v.iv.aor.p3.sg
-1.611112	n.pl.px3sp.loc adj
-1.611112	n.pl.px3sp.loc attr
-2.012758	n.pl.px3sp.loc cm
-2.012758	n.pl.px3sp.loc gna_perf
-2.012758	n.pl.px3sp.loc gpr_impf
-2.012758	n.pl.px3sp.loc gpr_past
-1.611112	n.pl.px3sp.loc lpar
-2.012758	n.pl.px3sp.loc n
-0.928896	n.pl.px3sp.loc n.nom
-2.012758	n.pl.px3sp.loc n.pl.gen
-2.012758	n.pl.px3sp.loc n.pl.nom
-2.012758	n.pl.px3sp.loc n.px1pl.gen
-1.611112	n.pl.px3sp.loc np.ant.m.nom
-2.012758	n.pl.px3sp.loc np.top
-2.012758	n.pl.px3sp.loc np.top.dat
-1.611112	n.pl.px3sp.loc np.top.gen
-1.611112	n.pl.px3sp.loc np.top.nom
-2.012758	n.pl.px3sp.loc num
-2.012758	n.pl.px3sp.loc prc_perf
-2.012758	n.pl.px3sp.loc rquot
-1.410705	n.pl.px3sp.loc v.iv
-2.012758	n.pl.px3sp.loc v.iv.aor.p3.sg
-2.012758	n.pl.px3sp.loc v.iv.pih.p3.sg
-2.012758	n.pl.px3sp.loc v.tv.pass
-2.012758	n.pl.px3sp.loc v.tv.pass.past.p3.sg
-2.779328	n.pl.px3sp.nom "да".postadv
-1.952607	n.pl.px3sp.nom "е".cop.aor.p3.pl
-2.779328	n.pl.px3sp.nom "е".cop.aor.p3.sg
-2.779328	n.pl.px3sp.nom abbr
-1.156695	n.pl.px3sp.nom adj
-1.695465	n.pl.px3sp.nom adv
-2.377681	n.pl.px3sp.nom advl
-1.805276	n.pl.px3sp.nom attr
-1.369729	n.pl.px3sp.nom cm
-1.156695	n.pl.px3sp.nom cnjcoo
-2.779328	n.pl.px3sp.nom det.neg
-2.779328	n.pl.px3sp.nom ger.loc
-2.779328	n.pl.px3sp.nom ger_past.px3sp.nom
-2.177274	n.pl.px3sp.nom gna_perf
-2.779328	n.pl.px3sp.nom gpr_impf
-2.779328	n.pl.px3sp.nom gpr_past
-1.472685	n.pl.px3sp.nom guio
-1.535048	n.pl.px3sp.nom lpar
-2.377681	n.pl.px3sp.nom n
-2.377681	n.pl.px3sp.nom n.abl
-2.177274	n.pl.px3sp.nom n.dat
-2.177274	n.pl.px3sp.nom n.gen
-2.779328	n.pl.px3sp.nom n.loc
-1.286563	n.pl.px3sp.nom n.nom
-2.779328	n.pl.px3sp.nom n.pl.nom
-2.377681	n.pl.px3sp.nom n.pl.px3sp.gen
-2.779328	n.pl.px3sp.nom n.px3sp.dat
-1.695465	n.pl.px3sp.nom n.px3sp.loc
-2.177274	n.pl.px3sp.nom np.ant.m.nom
-2.779328	n.pl.px3sp.nom np.cog.mf.nom
-2.779328	n.pl.px3sp.nom np.top.abl
-2.779328	n.pl.px3sp.nom np.top.dat
-2.779328	n.pl.px3sp.nom np.top.gen
-2.177274	n.pl.px3sp.nom np.top.nom
-1.952607	n.pl.px3sp.nom num
-1.286563	n.pl.px3sp.nom post
-2.779328	n.pl.px3sp.nom prc_impf
-1.607892	n.pl.px3sp.nom prc_perf
-2.779328	n.pl.px3sp.nom prn.ref.px3pl.acc
-1.805276	n.pl.px3sp.nom rpar
-2.377681	n.pl.px3sp.nom rquot
-1.216793	n.pl.px3sp.nom sent
-2.779328	n.pl.px3sp.nom subst.abl
-2.779328	n.pl.px3sp.nom subst.loc
-2.779328	n.pl.px3sp.nom t.tv
-1.607892	n.pl.px3sp.nom v.iv
-2.377681	n.pl.px3sp.nom v.iv.aor.p3.sg
-2.779328	n.pl.px3sp.nom v.iv.ifi.p3.pl
-1.952607	n.pl.px3sp.nom v.iv.ifi.p3.sg
-2.779328	n.pl.px3sp.nom v.iv.past.p3.pl
-2.377681	n.pl.px3sp.nom v.iv.past.p3.sg
-2.779328	n.pl.px3sp.nom v.iv.pih.p3.sg
-1.805276	n.pl.px3sp.nom v.tv
-2.779328	n.pl.px3sp.nom v.tv.aor.p3.sg
-2.377681	n.pl.px3sp.nom v.tv.ifi.p3.sg
-2.377681	n.pl.px3sp.nom v.tv.pass
-2.377681	n.pl.px3sp.nom v.tv.pass.aor.p3.sg
-1.695465	n.pl.px3sp.nom v.tv.pass.ifi.p3.sg
-2.779328	n.pl.px3sp.nom v.tv.pass.past.p3.sg
-0.4329748	n.px1pl.abl n.nom
-0.7340047	n.px1pl.acc gna_cond.p1.pl
-0.7340047	n.px1pl.acc v.tv
-0.4329748	n.px1pl.dat n.nom
-0.7340047	n.px1pl.gen adj
-0.7340047	n.px1pl.gen det.qnt
-0.7340047	n.px1pl.loc adv
-0.7340047	n.px1pl.loc np.ant.m.nom
-1.035035	n.px1pl.nom abbr
-1.035035	n.px1pl.nom adj
-1.035035	n.px1pl.nom cnjcoo
-1.035035	n.px1pl.nom subst.abl
-1.278073	n.px1sg.acc ger.nom
-1.278073	n.px1sg.acc gna_perf
-1.278073	n.px1sg.acc prc_impf
-0.6760192	n.px1sg.acc v.tv
-1.278073	n.px1sg.acc v.tv.ifi.p3.sg
-0.4329748	n.px1sg.gen n.px3sp.nom
-0.910096	n.px1sg.nom guio
-0.910096	n.px1sg.nom rquot
-0.910096	n.px1sg.nom sent
-1.035035	n.px2sg.loc cm
-1.035035	n.px2sg.loc n.gen
-1.035035	n.px2sg.loc prc_impf
-1.035035	n.px2sg.loc v.iv
-1.035035	n.px2sg.nom adj
-1.035035	n.px2sg.nom gna_cond.p2.frm.sg
-1.035035	n.px2sg.nom n.px2sg.loc
-1.035035	n.px2sg.nom v.tv
-2.419746	n.px3sp.abl abbr
-1.058582	n.px3sp.abl adj
-2.0181	n.px3sp.abl adv
-2.0181	n.px3sp.abl advl
-2.419746	n.px3sp.abl attr
-2.419746	n.px3sp.abl cm
-2.0181	n.px3sp.abl cnjcoo
-2.419746	n.px3sp.abl det.qnt
-2.419746	n.px3sp.abl det.ref
-1.175467	n.px3sp.abl gna_perf
-1.24831	n.px3sp.abl gpr_past
-2.419746	n.px3sp.abl lpar
-2.0181	n.px3sp.abl lquot
-1.817693	n.px3sp.abl n.dat
-1.058582	n.px3sp.abl n.nom
-2.419746	n.px3sp.abl np.al.acc
-2.419746	n.px3sp.abl np.ant.m.nom
-2.419746	n.px3sp.abl np.cog.mf.nom
-2.419746	n.px3sp.abl np.top
-1.593026	n.px3sp.abl num
-1.445695	n.px3sp.abl post
-2.419746	n.px3sp.abl prc_impf
-2.419746	n.px3sp.abl prc_perf
-2.419746	n.px3sp.abl prn.pers.nom
-2.419746	n.px3sp.abl rpar
-1.817693	n.px3sp.abl sent
-1.175467	n.px3sp.abl v.iv
-1.817693	n.px3sp.abl v.iv.aor.p3.sg
-2.419746	n.px3sp.abl v.iv.neg.ifi.p3.sg
-1.175467	n.px3sp.abl v.tv
-2.419746	n.px3sp.abl v.tv.aor.p3.sg
-2.419746	n.px3sp.abl v.tv.ifi.p1.pl
-2.419746	n.px3sp.abl v.tv.ifi.p3.sg
-2.419746	n.px3sp.abl v.tv.pass.neg
-2.419746	n.px3sp.abl v.tv.pass.past.p3.sg
-2.407905	n.px3sp.acc "да".cnjcoo
-2.809552	n.px3sp.acc "да".postadv
-2.809552	n.px3sp.acc "е".cop.aor.p3.sg
-2.407905	n.px3sp.acc abbr
-1.247017	n.px3sp.acc adj
-2.207498	n.px3sp.acc adv
-1.502909	n.px3sp.acc advl
-2.407905	n.px3sp.acc attr
-1.280502	n.px3sp.acc cm
-1.982831	n.px3sp.acc cnjcoo
-2.809552	n.px3sp.acc det.ref
-2.407905	n.px3sp.acc ger.acc
-1.565272	n.px3sp.acc ger.dat
-2.407905	n.px3sp.acc ger.gen
-2.407905	n.px3sp.acc ger.ins
-2.207498	n.px3sp.acc ger.loc
-1.638116	n.px3sp.acc ger.nom
-2.809552	n.px3sp.acc ger.px3sp.abl
-2.407905	n.px3sp.acc ger.px3sp.dat
-2.809552	n.px3sp.acc ger_past.abl
-2.809552	n.px3sp.acc ger_past.loc
-2.809552	n.px3sp.acc ger_past.nom
-2.809552	n.px3sp.acc gna_cond.p1.pl
-1.316787	n.px3sp.acc gna_perf
-2.407905	n.px3sp.acc gpr_impf
-1.725689	n.px3sp.acc gpr_past
-2.809552	n.px3sp.acc guio
-2.207498	n.px3sp.acc lpar
-2.809552	n.px3sp.acc lquot
-2.809552	n.px3sp.acc n
-2.809552	n.px3sp.acc n.abl
-2.407905	n.px3sp.acc n.acc
-2.407905	n.px3sp.acc n.dat
-2.809552	n.px3sp.acc n.ins
-1.638116	n.px3sp.acc n.nom
-2.809552	n.px3sp.acc n.px3sp.nom
-2.809552	n.px3sp.acc np.top
-2.809552	n.px3sp.acc np.top.dat
-2.809552	n.px3sp.acc np.top.nom
-2.407905	n.px3sp.acc num
-2.809552	n.px3sp.acc post
-2.809552	n.px3sp.acc postadv
-1.725689	n.px3sp.acc prc_impf
-2.809552	n.px3sp.acc prc_perf
-2.809552	n.px3sp.acc prn.dem.nom
-2.809552	n.px3sp.acc prn.dem.pl.gen
-2.809552	n.px3sp.acc prn.dem.qnt
-2.809552	n.px3sp.acc rquot
-2.809552	n.px3sp.acc sent
-2.809552	n.px3sp.acc t.tv.aor.p3.sg
-1.8355	n.px3sp.acc v.iv
-2.809552	n.px3sp.acc v.iv.past.p3.pl
-0.6566164	n.px3sp.acc v.tv
-2.809552	n.px3sp.acc v.tv.aor.p3.pl
-1.638116	n.px3sp.acc v.tv.aor.p3.sg
-1.087078	n.px3sp.acc v.tv.ifi.p3.sg
-2.809552	n.px3sp.acc v.tv.pass.ifi.p3.sg
-2.407905	n.px3sp.acc v.tv.past.p3.sg
-2.343082	n.px3sp.dat "да".postadv
-2.744729	n.px3sp.dat "е".cop.aor.p3.sg
-2.744729	n.px3sp.dat "ғана".postadv
-2.343082	n.px3sp.dat abbr
-1.291559	n.px3sp.dat adj
-1.660866	n.px3sp.dat adv
-2.343082	n.px3sp.dat advl
-2.343082	n.px3sp.dat attr
-1.770677	n.px3sp.dat cm
-1.770677	n.px3sp.dat cnjcoo
-2.744729	n.px3sp.dat cop.neg.aor.p3.sg
-2.343082	n.px3sp.dat det.qnt
-2.744729	n.px3sp.dat ger.dat
-2.744729	n.px3sp.dat ger.ins
-2.343082	n.px3sp.dat ger.nom
-2.744729	n.px3sp.dat ger.px3sp.dat
-2.744729	n.px3sp.dat ger.px3sp.nom
-2.744729	n.px3sp.dat ger_past.abl
-2.744729	n.px3sp.dat ger_past.loc
-1.573292	n.px3sp.dat gna_perf
-1.573292	n.px3sp.dat gpr_impf
-1.660866	n.px3sp.dat gpr_past
-2.744729	n.px3sp.dat guio
-2.343082	n.px3sp.dat lpar
-2.744729	n.px3sp.dat lquot
-2.343082	n.px3sp.dat n
-2.343082	n.px3sp.dat n.dat
-1.151106	n.px3sp.dat n.nom
-2.343082	n.px3sp.dat n.pl.nom
-2.343082	n.px3sp.dat n.px3sp.dat
-2.744729	n.px3sp.dat n.px3sp.nom
-2.142675	n.px3sp.dat np.top.nom
-2.142675	n.px3sp.dat num
-1.069312	n.px3sp.dat post
-1.918008	n.px3sp.dat prc_impf
-2.343082	n.px3sp.dat prc_perf
-2.744729	n.px3sp.dat prn.itg.sim.nom
-2.744729	n.px3sp.dat prn.ref.px3sp.adv
-2.343082	n.px3sp.dat rquot
-2.744729	n.px3sp.dat sent
-1.069312	n.px3sp.dat v.iv
-1.770677	n.px3sp.dat v.iv.aor.p3.sg
-1.33513	n.px3sp.dat v.iv.ifi.p3.sg
-2.744729	n.px3sp.dat v.iv.neg
-2.744729	n.px3sp.dat v.iv.past.p3.sg
-1.291559	n.px3sp.dat v.tv
-2.343082	n.px3sp.dat v.tv.aor.p3.sg
-2.744729	n.px3sp.dat v.tv.fut.p3.sg
-2.142675	n.px3sp.dat v.tv.ifi.p3.sg
-2.744729	n.px3sp.dat v.tv.neg
-2.744729	n.px3sp.dat v.tv.pass
-2.142675	n.px3sp.dat v.tv.pass.aor.p3.sg
-1.500449	n.px3sp.dat v.tv.pass.ifi.p3.sg
-2.744729	n.px3sp.dat v.tv.pass.past.p3.sg
-2.343082	n.px3sp.dat v.tv.past.p3.sg
-2.330181	n.px3sp.gen "да".postadv
-2.731828	n.px3sp.gen "е".cop.aor.p3.sg
-2.731828	n.px3sp.gen "лы".post
-0.7368461	n.px3sp.gen adj
-2.129774	n.px3sp.gen adv
-2.731828	n.px3sp.gen adv.itg
-1.425185	n.px3sp.gen attr
-1.905107	n.px3sp.gen cm
-2.330181	n.px3sp.gen det.dem
-2.731828	n.px3sp.gen det.qnt
-2.731828	n.px3sp.gen det.ref
-2.731828	n.px3sp.gen ger.nom
-2.731828	n.px3sp.gen ger.px3sp.abl
-1.905107	n.px3sp.gen ger.px3sp.dat
-2.330181	n.px3sp.gen ger.px3sp.nom
-2.330181	n.px3sp.gen gpr_past
-2.129774	n.px3sp.gen lpar
-1.647965	n.px3sp.gen n
-2.731828	n.px3sp.gen n.abl
-2.731828	n.px3sp.gen n.acc
-2.731828	n.px3sp.gen n.dat
-2.731828	n.px3sp.gen n.ins
-2.731828	n.px3sp.gen n.loc
-1.138205	n.px3sp.gen n.nom
-2.731828	n.px3sp.gen n.pl.nom
-1.757776	n.px3sp.gen n.pl.px3sp.acc
-2.330181	n.px3sp.gen n.pl.px3sp.ins
-1.905107	n.px3sp.gen n.pl.px3sp.nom
-1.905107	n.px3sp.gen n.px3sp.acc
-1.647965	n.px3sp.gen n.px3sp.dat
-2.731828	n.px3sp.gen n.px3sp.ins
-1.425185	n.px3sp.gen n.px3sp.loc
-0.8008739	n.px3sp.gen n.px3sp.nom
-2.731828	n.px3sp.gen n.px3sp.sim
-2.731828	n.px3sp.gen np.al.nom
-2.330181	n.px3sp.gen np.ant.m.nom
-2.731828	n.px3sp.gen np.top.dat
-2.731828	n.px3sp.gen np.top.gen
-1.560392	n.px3sp.gen num
-2.330181	n.px3sp.gen num.percent
-2.330181	n.px3sp.gen subst.nom
-2.731828	n.px3sp.gen subst.px3sp.acc
-2.330181	n.px3sp.gen subst.px3sp.nom
-2.731828	n.px3sp.gen t.iv
-1.560392	n.px3sp.gen v.iv
-2.731828	n.px3sp.gen v.iv.past.p3.sg
-2.330181	n.px3sp.gen v.tv.pass
-2.296298	n.px3sp.ins "лы".post
-2.296298	n.px3sp.ins "сыз".post
-1.894651	n.px3sp.ins abbr
-2.296298	n.px3sp.ins adj
-2.296298	n.px3sp.ins adv
-2.296298	n.px3sp.ins advl
-2.296298	n.px3sp.ins attr
-1.052018	n.px3sp.ins cm
-2.296298	n.px3sp.ins ger.nom
-1.894651	n.px3sp.ins ger_past.loc
-1.694244	n.px3sp.ins gna_perf
-2.296298	n.px3sp.ins gpr_past
-1.894651	n.px3sp.ins lquot
-1.894651	n.px3sp.ins n
-1.894651	n.px3sp.ins n.dat
-2.296298	n.px3sp.ins n.loc
-1.322246	n.px3sp.ins n.nom
-2.296298	n.px3sp.ins n.pl.gen
-2.296298	n.px3sp.ins n.pl.nom
-2.296298	n.px3sp.ins n.pl.px3sp.acc
-2.296298	n.px3sp.ins np.top.loc
-1.894651	n.px3sp.ins np.top.nom
-1.894651	n.px3sp.ins num
-1.694244	n.px3sp.ins post
-1.894651	n.px3sp.ins prc_impf
-1.894651	n.px3sp.ins prc_perf
-2.296298	n.px3sp.ins sent
-1.894651	n.px3sp.ins v.iv
-2.296298	n.px3sp.ins v.iv.coop
-2.296298	n.px3sp.ins v.iv.coop.past.p3.pl
-2.296298	n.px3sp.ins v.iv.ifi.p3.sg
-2.296298	n.px3sp.ins v.iv.past.p3.sg
-1.469577	n.px3sp.ins v.tv
-1.894651	n.px3sp.ins v.tv.aor.p3.sg
-2.296298	n.px3sp.ins v.tv.coop
-2.296298	n.px3sp.ins v.tv.coop.ifi.p3.sg
-1.694244	n.px3sp.ins v.tv.ifi.p3.sg
-1.694244	n.px3sp.ins v.tv.pass
-2.296298	n.px3sp.ins v.tv.pass.ifi.p3.sg
-2.296298	n.px3sp.ins v.tv.pass.past.p3.sg
-2.880133	n.px3sp.loc "е".cop.aor.p3.pl
-2.880133	n.px3sp.loc "е".cop.aor.p3.sg
-2.880133	n.px3sp.loc abbr
-0.9776899	n.px3sp.loc adj
-2.478486	n.px3sp.loc adj.comp
-1.708697	n.px3sp.loc adv
-2.053412	n.px3sp.loc advl
-1.351084	n.px3sp.loc attr
-1.708697	n.px3sp.loc cm
-2.880133	n.px3sp.loc cnjcoo
-2.880133	n.px3sp.loc det.itg
-2.880133	n.px3sp.loc det.qnt
-2.880133	n.px3sp.loc det.ref
-1.708697	n.px3sp.loc gna_perf
-2.053412	n.px3sp.loc gpr_impf
-1.387368	n.px3sp.loc gpr_past
-2.880133	n.px3sp.loc gpr_pot
-2.278079	n.px3sp.loc guio
-1.708697	n.px3sp.loc lpar
-2.478486	n.px3sp.loc lquot
-1.708697	n.px3sp.loc n
-2.880133	n.px3sp.loc n.abl
-2.880133	n.px3sp.loc n.acc
-1.79627	n.px3sp.loc n.dat
-2.278079	n.px3sp.loc n.gen
-2.478486	n.px3sp.loc n.loc
-0.9926794	n.px3sp.loc n.nom
-2.478486	n.px3sp.loc n.pl.gen
-1.79627	n.px3sp.loc n.pl.nom
-2.880133	n.px3sp.loc n.px3sp.dat
-2.880133	n.px3sp.loc n.px3sp.nom
-2.880133	n.px3sp.loc n.top.nom
-1.708697	n.px3sp.loc np.ant.m.nom
-2.880133	n.px3sp.loc np.cog.mf.nom
-2.278079	n.px3sp.loc np.top
-2.278079	n.px3sp.loc np.top.loc
-1.518968	n.px3sp.loc np.top.nom
-1.387368	n.px3sp.loc num
-2.880133	n.px3sp.loc num.ord
-2.880133	n.px3sp.loc post
-2.478486	n.px3sp.loc prc_impf
-2.278079	n.px3sp.loc prc_perf
-2.880133	n.px3sp.loc prn.dem.pl.loc
-2.880133	n.px3sp.loc prn.pers.gen
-2.880133	n.px3sp.loc prn.pers.loc
-2.478486	n.px3sp.loc prn.pers.nom
-1.79627	n.px3sp.loc rpar
-2.053412	n.px3sp.loc sent
-2.880133	n.px3sp.loc subst.abl
-2.880133	n.px3sp.loc subst.dat
-1.2575	n.px3sp.loc v.iv
-1.79627	n.px3sp.loc v.iv.aor.p3.sg
-2.478486	n.px3sp.loc v.iv.ifi.p3.sg
-2.880133	n.px3sp.loc v.iv.neg
-2.478486	n.px3sp.loc v.iv.past.p3.sg
-1.79627	n.px3sp.loc v.tv
-2.880133	n.px3sp.loc v.tv.ifi.p3.sg
-1.79627	n.px3sp.loc v.tv.pass
-2.880133	n.px3sp.loc v.tv.pass.aor.p3.sg
-2.478486	n.px3sp.loc v.tv.pass.ifi.p3.sg
-1.906081	n.px3sp.loc v.tv.pass.past.p3.sg
-3.341995	n.px3sp.nom "да".cnjcoo
-2.940349	n.px3sp.nom "да".postadv
-1.69217	n.px3sp.nom "е".cop.aor.p3.sg
-2.940349	n.px3sp.nom "лы".post
-3.341995	n.px3sp.nom "ғана".postadv
-1.812946	n.px3sp.nom abbr
-1.054861	n.px3sp.nom adj
-1.932397	n.px3sp.nom adv
-3.341995	n.px3sp.nom adv.itg
-2.258133	n.px3sp.nom advl
-1.719363	n.px3sp.nom attr
-1.384288	n.px3sp.nom cm
-1.470068	n.px3sp.nom cnjcoo
-3.341995	n.px3sp.nom cop
-2.515275	n.px3sp.nom cop.ifi.p3.sg
-2.258133	n.px3sp.nom det.dem
-3.341995	n.px3sp.nom det.ind
-2.940349	n.px3sp.nom det.qnt
-3.341995	n.px3sp.nom ger.dat
-3.341995	n.px3sp.nom ger.px3sp.dat
-3.341995	n.px3sp.nom ger_impf.px3sp.acc
-3.341995	n.px3sp.nom ger_past.px3sp.acc
-3.341995	n.px3sp.nom ger_past.px3sp.ins
-3.341995	n.px3sp.nom ger_past.px3sp.nom
-3.341995	n.px3sp.nom ger_perf.abl
-3.341995	n.px3sp.nom ger_perf.px3sp.nom
-3.341995	n.px3sp.nom gna_cond.p3.sg
-1.619522	n.px3sp.nom gna_perf
-2.940349	n.px3sp.nom gpr_impf
-1.932397	n.px3sp.nom gpr_past
-1.470068	n.px3sp.nom guio
-1.50289	n.px3sp.nom lpar
-2.739942	n.px3sp.nom lquot
-2.258133	n.px3sp.nom n
-3.341995	n.px3sp.nom n.abl
-3.341995	n.px3sp.nom n.acc
-2.367944	n.px3sp.nom n.dat
-2.258133	n.px3sp.nom n.gen
-2.739942	n.px3sp.nom n.ins
-1.980831	n.px3sp.nom n.loc
-1.384288	n.px3sp.nom n.nom
-3.341995	n.px3sp.nom n.pl.dat
-2.940349	n.px3sp.nom n.pl.gen
-2.739942	n.px3sp.nom n.pl.nom
-2.940349	n.px3sp.nom n.pl.px3sp.dat
-3.341995	n.px3sp.nom n.pl.px3sp.gen
-2.367944	n.px3sp.nom n.pl.px3sp.nom
-2.739942	n.px3sp.nom n.px3sp.abl
-2.258133	n.px3sp.nom n.px3sp.acc
-2.515275	n.px3sp.nom n.px3sp.dat
-2.258133	n.px3sp.nom n.px3sp.gen
-3.341995	n.px3sp.nom n.px3sp.ins
-1.719363	n.px3sp.nom n.px3sp.loc
-2.035353	n.px3sp.nom n.px3sp.nom
-3.341995	n.px3sp.nom np.al.gen
-3.341995	n.px3sp.nom np.al.nom
-2.097716	n.px3sp.nom np.ant.f.abl
-3.341995	n.px3sp.nom np.ant.f.dat
-3.341995	n.px3sp.nom np.ant.f.gen
-2.515275	n.px3sp.nom np.ant.f.nom
-3.341995	n.px3sp.nom np.ant.gen
-2.940349	n.px3sp.nom np.ant.m.abl
-3.341995	n.px3sp.nom np.ant.m.dat
-2.170559	n.px3sp.nom np.ant.m.gen
-1.520281	n.px3sp.nom np.ant.m.nom
-3.341995	n.px3sp.nom np.cog.m.dat
-2.940349	n.px3sp.nom np.cog.m.gen
-3.341995	n.px3sp.nom np.cog.m.nom
-3.341995	n.px3sp.nom np.cog.mf.gen
-3.341995	n.px3sp.nom np.cog.mf.nom
-3.341995	n.px3sp.nom np.gen
-2.739942	n.px3sp.nom np.top
-2.940349	n.px3sp.nom np.top.dat
-2.515275	n.px3sp.nom np.top.gen
-2.258133	n.px3sp.nom np.top.loc
-1.849231	n.px3sp.nom np.top.nom
-1.232547	n.px3sp.nom num
-2.515275	n.px3sp.nom num.ord
-3.341995	n.px3sp.nom num.percent
-1.454542	n.px3sp.nom post
-3.341995	n.px3sp.nom postadv
-2.940349	n.px3sp.nom prc_impf
-1.849231	n.px3sp.nom prc_perf
-2.739942	n.px3sp.nom prn.pers.gen
-2.940349	n.px3sp.nom prn.ref.px3sp.gen
-1.849231	n.px3sp.nom rpar
-1.849231	n.px3sp.nom rquot
-1.50289	n.px3sp.nom sent
-3.341995	n.px3sp.nom subst.abl
-2.515275	n.px3sp.nom subst.dat
-3.341995	n.px3sp.nom subst.px3sp.loc
-1.335268	n.px3sp.nom v.iv
-2.258133	n.px3sp.nom v.iv.aor.p3.sg
-1.932397	n.px3sp.nom v.iv.ifi.p3.sg
-2.940349	n.px3sp.nom v.iv.neg
-3.341995	n.px3sp.nom v.iv.neg.ifi.p3.sg
-2.739942	n.px3sp.nom v.iv.past.p3.sg
-3.341995	n.px3sp.nom v.iv.pih.p3.sg
-1.932397	n.px3sp.nom v.tv
-3.341995	n.px3sp.nom v.tv.aor.p3.sg
-2.258133	n.px3sp.nom v.tv.ifi.p3.sg
-2.515275	n.px3sp.nom v.tv.pass
-2.940349	n.px3sp.nom v.tv.pass.aor.p3.sg
-1.748373	n.px3sp.nom v.tv.pass.ifi.p3.sg
-3.341995	n.px3sp.nom v.tv.pass.neg
-3.341995	n.px3sp.nom v.tv.pass.pih.p3.sg
-3.341995	n.px3sp.nom v.tv.past.p3.sg
-1.035035	n.px3sp.sim gna_perf
-1.035035	n.px3sp.sim gpr_past
-0.6333882	n.px3sp.sim v.iv
-1.211126	n.sim cm
-1.211126	n.sim gna_perf
-1.211126	n.sim gpr_past
-1.211126	n.sim n.nom
-1.211126	n.sim v.iv
-1.211126	n.sim v.tv
-0.910096	n.top.nom gpr_past
-0.910096	n.top.nom n.px3sp.gen
-0.910096	n.top.nom v.tv
-0.4329748	np.abl n.nom
-0.4329748	np.ad.dat np.top.abl
-0.7340047	np.al.acc ger.nom
-0.7340047	np.al.acc v.tv
-0.4329748	np.al.gen num.ord
-1.721524	np.al.nom cm
-1.721524	np.al.nom cnjcoo
-1.721524	np.al.nom n.nom
-2.123171	np.al.nom n.pl.px3sp.abl
-1.721524	np.al.nom n.pl.px3sp.nom
-2.123171	np.al.nom n.px3sp.abl
-1.721524	np.al.nom n.px3sp.dat
-2.123171	np.al.nom n.px3sp.gen
-1.721524	np.al.nom n.px3sp.loc
-1.521117	np.al.nom n.px3sp.nom
-2.123171	np.al.nom np.al.nom
-1.521117	np.al.nom num
-0.5941216	np.al.nom rquot
-0.6304065	np.al.nom sent
-0.5084495	np.ant.dat rquot
-0.910096	np.ant.dat v.tv.pass.aor.p3.sg
-1.474367	np.ant.f.abl gpr_past
-0.8723138	np.ant.f.abl guio
-1.072721	np.ant.f.abl n.nom
-1.072721	np.ant.f.abl np.ant.m.nom
-1.474367	np.ant.f.abl sent
-1.474367	np.ant.f.abl v.iv.past.p3.sg
-1.474367	np.ant.f.abl v.tv
-0.4329748	np.ant.f.dat v.iv.aor.p3.sg
-1.131945	np.ant.f.gen attr
-1.131945	np.ant.f.gen gpr_impf
-1.131945	np.ant.f.gen n.loc
-1.131945	np.ant.f.gen n.px3sp.loc
-1.131945	np.ant.f.gen v.tv.pass.neg
-1.734005	np.ant.f.nom adj
-1.332358	np.ant.f.nom cm
-1.734005	np.ant.f.nom gna_perf
-1.734005	np.ant.f.nom gpr_impf
-1.734005	np.ant.f.nom gpr_past
-1.332358	np.ant.f.nom guio
-1.734005	np.ant.f.nom n.pl.px3sp.acc
-1.734005	np.ant.f.nom n.pl.px3sp.dat
-1.734005	np.ant.f.nom n.px3sp.gen
-1.734005	np.ant.f.nom n.px3sp.nom
-1.332358	np.ant.f.nom np.cog.mf.nom
-1.734005	np.ant.f.nom num
-1.734005	np.ant.f.nom rquot
-1.734005	np.ant.f.nom sent
-1.734005	np.ant.f.nom v.iv
-1.332358	np.ant.f.nom v.tv
-0.7340047	np.ant.f.pl.px3sp.nom attr
-0.7340047	np.ant.f.pl.px3sp.nom n.px3sp.loc
-0.4329748	np.ant.gen n.px3sp.nom
-1.211126	np.ant.m.abl gpr_past
-0.8094795	np.ant.m.abl np.ant.m.nom
-1.211126	np.ant.m.abl v.iv
-1.211126	np.ant.m.abl v.iv.aor.p3.sg
-1.211126	np.ant.m.abl v.iv.ifi.p3.sg
-1.035035	np.ant.m.acc adv
-0.6333882	np.ant.m.acc n.px3sp.nom
-1.035035	np.ant.m.acc rquot
-1.086194	np.ant.m.dat adj
-1.688247	np.ant.m.dat advl
-1.688247	np.ant.m.dat cm
-1.688247	np.ant.m.dat gna_perf
-1.286601	np.ant.m.dat gpr_past
-1.688247	np.ant.m.dat lquot
-1.286601	np.ant.m.dat n.nom
-1.688247	np.ant.m.dat post
-1.688247	np.ant.m.dat rquot
-1.286601	np.ant.m.dat v.iv.imp.p2.sg
-1.688247	np.ant.m.dat v.tv
-1.286601	np.ant.m.dat v.tv.pass
-2.203827	np.ant.m.gen "да".postadv
-2.203827	np.ant.m.gen "е".cop.aor.p3.sg
-0.8426624	np.ant.m.gen adj
-1.377106	np.ant.m.gen attr
-2.203827	np.ant.m.gen det.dem
-1.80218	np.ant.m.gen det.qnt
-1.80218	np.ant.m.gen det.ref
-2.203827	np.ant.m.gen lquot
-1.601773	np.ant.m.gen n
-2.203827	np.ant.m.gen n.dat
-2.203827	np.ant.m.gen n.loc
-1.229775	np.ant.m.gen n.nom
-1.601773	np.ant.m.gen n.pl.px3sp.acc
-2.203827	np.ant.m.gen n.pl.px3sp.loc
-2.203827	np.ant.m.gen n.pl.px3sp.nom
-1.80218	np.ant.m.gen n.px3sp.abl
-2.203827	np.ant.m.gen n.px3sp.acc
-1.80218	np.ant.m.gen n.px3sp.dat
-1.80218	np.ant.m.gen n.px3sp.ins
-2.203827	np.ant.m.gen n.px3sp.loc
-1.032391	np.ant.m.gen n.px3sp.nom
-1.80218	np.ant.m.gen np.ant.f.nom
-2.203827	np.ant.m.gen np.top.dat
-2.203827	np.ant.m.gen num
-1.80218	np.ant.m.gen prn.ref.px3sp.nom
-2.203827	np.ant.m.gen sent
-0.7340047	np.ant.m.ins cm
-0.7340047	np.ant.m.ins np.top.dat
-0.4329748	np.ant.m.loc cnjcoo
-2.901322	np.ant.m.nom "-ақ".postadv
-2.901322	np.ant.m.nom "да".postadv
-2.299268	np.ant.m.nom abbr
-1.491723	np.ant.m.nom adj
-2.074601	np.ant.m.nom adv
-1.729886	np.ant.m.nom attr
-0.9843897	np.ant.m.nom cm
-2.074601	np.ant.m.nom cnjcoo
-2.901322	np.ant.m.nom cop.aor.evid.p3.sg
-2.299268	np.ant.m.nom det.dem
-2.901322	np.ant.m.nom det.ind
-2.074601	np.ant.m.nom det.ref
-2.901322	np.ant.m.nom ger.nom
-2.901322	np.ant.m.nom ger_past.abl
-2.901322	np.ant.m.nom gna_perf
-1.657042	np.ant.m.nom gpr_past
-2.299268	np.ant.m.nom guio
-2.299268	np.ant.m.nom lpar
-2.499676	np.ant.m.nom lquot
-2.074601	np.ant.m.nom n
-2.299268	np.ant.m.nom n.abl
-2.499676	np.ant.m.nom n.acc
-2.299268	np.ant.m.nom n.dat
-1.81746	np.ant.m.nom n.gen
-1.225906	np.ant.m.nom n.nom
-2.901322	np.ant.m.nom n.pl.px3sp.acc
-2.901322	np.ant.m.nom n.pl.px3sp.dat
-2.074601	np.ant.m.nom n.pl.px3sp.gen
-2.499676	np.ant.m.nom n.pl.px3sp.loc
-1.729886	np.ant.m.nom n.pl.px3sp.nom
-2.074601	np.ant.m.nom n.px3sp.abl
-2.299268	np.ant.m.nom n.px3sp.dat
-2.074601	np.ant.m.nom n.px3sp.gen
-2.074601	np.ant.m.nom n.px3sp.loc
-1.657042	np.ant.m.nom n.px3sp.nom
-2.499676	np.ant.m.nom np.al.nom
-2.901322	np.ant.m.nom np.ant.f.nom
-2.901322	np.ant.m.nom np.ant.m.gen
-1.81746	np.ant.m.nom np.ant.m.nom
-2.901322	np.ant.m.nom np.ant.m.px3sp.nom
-1.927271	np.ant.m.nom np.cog.m.gen
-1.278689	np.ant.m.nom np.cog.m.nom
-2.499676	np.ant.m.nom np.cog.mf.dat
-1.491723	np.ant.m.nom np.cog.mf.gen
-1.079607	np.ant.m.nom np.cog.mf.nom
-2.901322	np.ant.m.nom np.pat.m.nom
-2.499676	np.ant.m.nom np.top
-2.901322	np.ant.m.nom np.top.nom
-1.540158	np.ant.m.nom num
-2.499676	np.ant.m.nom post
-2.901322	np.ant.m.nom prc_impf
-2.901322	np.ant.m.nom prn.pers.acc
-2.499676	np.ant.m.nom prn.pers.gen
-2.499676	np.ant.m.nom prn.ref.px3sp.gen
-2.299268	np.ant.m.nom rpar
-1.540158	np.ant.m.nom rquot
-2.074601	np.ant.m.nom sent
-2.299268	np.ant.m.nom v.iv
-2.299268	np.ant.m.nom v.iv.aor.p3.sg
-2.901322	np.ant.m.nom v.iv.ifi.p3.sg
-2.901322	np.ant.m.nom v.iv.neg
-1.657042	np.ant.m.nom v.tv
-2.901322	np.ant.m.nom v.tv.ifi.p3.sg
-0.4329748	np.ant.m.pl.nom n.px3sp.nom
-0.4329748	np.ant.m.pl.px1sg.dat n.px1sg.acc
-0.5084495	np.ant.m.px1sg.nom cm
-0.910096	np.ant.m.px1sg.nom rquot
-0.4329748	np.ant.m.px2sg.nom n.pl.ins
-0.4329748	np.ant.m.px3sp.gen n.px3sp.nom
-0.4329748	np.ant.m.px3sp.nom cnjcoo
-0.7340047	np.ant.m.sim attr
-0.7340047	np.ant.m.sim n
-0.4329748	np.cog.m.dat sent
-1.830915	np.cog.m.gen adj
-1.429268	np.cog.m.gen cm
-1.830915	np.cog.m.gen det.dem
-1.830915	np.cog.m.gen det.qnt
-1.830915	np.cog.m.gen ger.px3sp.ins
-0.8568634	np.cog.m.gen lquot
-1.228861	np.cog.m.gen n.pl.px3sp.acc
-1.004194	np.cog.m.gen n.px3sp.ins
-1.429268	np.cog.m.gen n.px3sp.nom
-1.830915	np.cog.m.gen np.ant.m.nom
-1.830915	np.cog.m.gen np.top.acc
-1.830915	np.cog.m.gen np.top.gen
-1.830915	np.cog.m.gen prn.ref.px3sp.abl
-1.830915	np.cog.m.gen v.tv
-0.7340047	np.cog.m.ins v.tv.coop.aor.p3.sg
-0.7340047	np.cog.m.ins v.tv.coop.ifi.p3.sg
-1.80218	np.cog.m.nom adj
-0.6102042	np.cog.m.nom cm
-1.80218	np.cog.m.nom cnjcoo
-1.80218	np.cog.m.nom det.dem
-2.203827	np.cog.m.nom det.qnt
-2.203827	np.cog.m.nom gpr_past
-1.229775	np.cog.m.nom lpar
-1.601773	np.cog.m.nom n.nom
-2.203827	np.cog.m.nom n.pl.px3sp.acc
-2.203827	np.cog.m.nom n.px3sp.loc
-1.601773	np.cog.m.nom np.ant.m.nom
-1.377106	np.cog.m.nom np.cog.m.nom
-2.203827	np.cog.m.nom np.cog.mf.nom
-2.203827	np.cog.m.nom np.top.gen
-1.377106	np.cog.m.nom num
-1.80218	np.cog.m.nom prc_perf
-2.203827	np.cog.m.nom prn.ref.px3sp.gen
-2.203827	np.cog.m.nom rquot
-1.377106	np.cog.m.nom sent
-2.203827	np.cog.m.nom v.iv
-1.80218	np.cog.m.nom v.tv
-2.203827	np.cog.m.nom v.tv.ifi.p3.sg
-0.4329748	np.cog.m.pl.gen det.ref
-0.4329748	np.cog.m.pl.nom n.px3sp.nom
-0.910096	np.cog.mf.dat lquot
-0.910096	np.cog.mf.dat n.nom
-0.910096	np.cog.mf.dat n.pl.gen
-1.895373	np.cog.mf.gen "е".cop.aor.p3.sg
-1.493726	np.cog.mf.gen adj
-1.895373	np.cog.mf.gen det.dem
-1.895373	np.cog.mf.gen gpr_past
-1.068652	np.cog.mf.gen lpar
-0.4422036	np.cog.mf.gen lquot
-1.895373	np.cog.mf.gen n.pl.px3sp.dat
-1.895373	np.cog.mf.gen n.px3sp.ins
-1.895373	np.cog.mf.gen n.px3sp.loc
-1.493726	np.cog.mf.gen n.px3sp.nom
-1.895373	np.cog.mf.gen np.top.dat
-1.895373	np.cog.mf.gen subst.pl.nom
-1.895373	np.cog.mf.gen v.iv
-2.526397	np.cog.mf.nom abbr
-1.442534	np.cog.mf.nom adj
-1.699676	np.cog.mf.nom adv
-0.5082321	np.cog.mf.nom cm
-1.699676	np.cog.mf.nom cnjcoo
-2.526397	np.cog.mf.nom ger_past.nom
-1.033632	np.cog.mf.nom lpar
-2.12475	np.cog.mf.nom lquot
-2.526397	np.cog.mf.nom n.acc
-1.924343	np.cog.mf.nom n.nom
-2.526397	np.cog.mf.nom n.pl.acc
-2.526397	np.cog.mf.nom n.pl.gen
-2.526397	np.cog.mf.nom n.pl.px3sp.nom
-2.12475	np.cog.mf.nom n.px3sp.acc
-1.924343	np.cog.mf.nom n.px3sp.dat
-2.526397	np.cog.mf.nom n.px3sp.gen
-0.8765706	np.cog.mf.nom n.px3sp.nom
-2.12475	np.cog.mf.nom np.cog.mf.nom
-2.526397	np.cog.mf.nom post
-2.526397	np.cog.mf.nom prc_perf
-1.282117	np.cog.mf.nom rpar
-2.12475	np.cog.mf.nom rquot
-1.924343	np.cog.mf.nom sent
-2.526397	np.cog.mf.nom v.iv.ifi.p3.sg
-2.12475	np.cog.mf.nom v.tv
-2.12475	np.cog.mf.nom v.tv.ifi.p3.sg
-0.4329748	np.cog.mf.pl.ins post
-0.4329748	np.cog.mf.pl.nom post
-1.432975	np.gen adj
-0.8309211	np.gen attr
-0.8309211	np.gen n
-1.031328	np.gen n.px3sp.nom
-1.432975	np.gen np.top.loc
-0.7340047	np.ins n.nom
-0.7340047	np.ins n.px3sp.nom
-0.4329748	np.pat.m.nom np.cog.m.nom
-1.072721	np.top.abl gpr_past
-1.474367	np.top.abl n.dat
-1.474367	np.top.abl n.loc
-1.474367	np.top.abl n.nom
-1.474367	np.top.abl np.top.dat
-1.474367	np.top.abl post
-1.474367	np.top.abl sent
-1.072721	np.top.abl v.iv
-1.474367	np.top.abl v.tv.pass.past.p3.pl
-1.387224	np.top.acc adj
-1.587631	np.top.acc advl
-0.8178411	np.top.acc cm
-1.989277	np.top.acc cnjcoo
-1.989277	np.top.acc ger.nom
-1.162556	np.top.acc gna_perf
-1.989277	np.top.acc gpr_past
-1.989277	np.top.acc lpar
-1.587631	np.top.acc np.ant.m.nom
-1.989277	np.top.acc np.top.nom
-1.989277	np.top.acc prc_perf
-1.989277	np.top.acc rpar
-1.387224	np.top.acc sent
-0.8178411	np.top.acc v.tv
-1.989277	np.top.acc v.tv.ifi.p3.sg
-1.111404	np.top.dat adj
-1.938125	np.top.dat adv
-1.938125	np.top.dat cm
-1.938125	np.top.dat cnjcoo
-1.536478	np.top.dat gpr_past
-1.111404	np.top.dat n.nom
-1.938125	np.top.dat n.pl.nom
-1.536478	np.top.dat n.px3sp.abl
-1.938125	np.top.dat n.px3sp.nom
-1.536478	np.top.dat num
-1.938125	np.top.dat post
-1.336071	np.top.dat prc_perf
-1.336071	np.top.dat sent
-1.536478	np.top.dat v.iv
-1.536478	np.top.dat v.tv
-1.938125	np.top.dat v.tv.ifi.p3.sg
-1.938125	np.top.dat v.tv.pass
-0.7439082	np.top.gen adj
-2.105072	np.top.gen adv
-2.105072	np.top.gen apos
-1.703426	np.top.gen attr
-2.105072	np.top.gen cm
-1.703426	np.top.gen cnjcoo
-2.105072	np.top.gen det.dem
-2.105072	np.top.gen ger_past.px3sp.nom
-2.105072	np.top.gen gpr_past
-1.503019	np.top.gen n.nom
-2.105072	np.top.gen n.pl.px3sp.acc
-1.703426	np.top.gen n.px3sp.dat
-2.105072	np.top.gen n.px3sp.gen
-1.131021	np.top.gen n.px3sp.loc
-1.131021	np.top.gen n.px3sp.nom
-1.703426	np.top.gen np.ins
-2.105072	np.top.gen np.top.loc
-1.703426	np.top.gen np.top.nom
-1.703426	np.top.gen num
-2.105072	np.top.gen rpar
-1.703426	np.top.gen v.iv
-0.9855707	np.top.ins adj
-1.387217	np.top.ins cnjcoo
-1.387217	np.top.ins ger.dat
-1.387217	np.top.ins lquot
-1.387217	np.top.ins n.nom
-0.9855707	np.top.ins sent
-1.387217	np.top.ins v.tv.coop
-1.082173	np.top.loc adj
-2.056224	np.top.loc cm
-2.056224	np.top.loc ger.nom
-1.654577	np.top.loc gna_perf
-1.45417	np.top.loc gpr_past
-1.229503	np.top.loc lquot
-2.056224	np.top.loc n.abl
-2.056224	np.top.loc n.nom
-2.056224	np.top.loc n.pl.nom
-2.056224	np.top.loc n.px3sp.nom
-2.056224	np.top.loc np.cog.mf.nom
-2.056224	np.top.loc np.gen
-2.056224	np.top.loc np.top.gen
-2.056224	np.top.loc np.top.nom
-1.654577	np.top.loc num
-1.654577	np.top.loc prc_perf
-2.056224	np.top.loc prn.pers.nom
-1.654577	np.top.loc sent
-0.8847879	np.top.loc v.iv
-1.654577	np.top.loc v.iv.ifi.p3.sg
-2.056224	np.top.loc v.iv.past.p3.sg
-2.056224	np.top.loc v.tv.pass
-2.475373	np.top.nom "е".cop.aor.p3.sg
-2.87702	np.top.nom "ғана".postadv
-2.274966	np.top.nom abbr
-1.705583	np.top.nom adj
-2.87702	np.top.nom apos
-1.467421	np.top.nom attr
-0.7496504	np.top.nom cm
-1.1328	np.top.nom cnjcoo
-2.274966	np.top.nom det.dem
-2.87702	np.top.nom det.qnt
-2.87702	np.top.nom det.ref
-2.87702	np.top.nom ger.px3sp.gen
-2.87702	np.top.nom gna_perf
-2.87702	np.top.nom gpr_impf
-2.274966	np.top.nom gpr_past
-1.902968	np.top.nom guio
-1.467421	np.top.nom lpar
-2.475373	np.top.nom n
-2.87702	np.top.nom n.abl
-2.87702	np.top.nom n.dat
-1.902968	np.top.nom n.nom
-2.87702	np.top.nom n.pl.px3sp.abl
-2.87702	np.top.nom n.pl.px3sp.acc
-2.475373	np.top.nom n.pl.px3sp.dat
-2.475373	np.top.nom n.pl.px3sp.loc
-2.050299	np.top.nom n.pl.px3sp.nom
-2.475373	np.top.nom n.px3sp.abl
-2.475373	np.top.nom n.px3sp.acc
-1.570377	np.top.nom n.px3sp.dat
-1.467421	np.top.nom n.px3sp.gen
-2.87702	np.top.nom n.px3sp.ins
-1.254387	np.top.nom n.px3sp.loc
-1.314485	np.top.nom n.px3sp.nom
-2.87702	np.top.nom np.ant.m.nom
-2.87702	np.top.nom np.top.dat
-2.475373	np.top.nom np.top.ins
-2.475373	np.top.nom np.top.nom
-2.475373	np.top.nom num
-2.475373	np.top.nom post
-2.87702	np.top.nom prc_perf
-2.87702	np.top.nom prn.ref.px3sp.gen
-1.467421	np.top.nom rpar
-0.8159015	np.top.nom sent
-2.475373	np.top.nom v.iv
-2.87702	np.top.nom v.iv.aor.p3.sg
-2.050299	np.top.nom v.tv
-2.87702	np.top.nom v.tv.pass
-2.475373	np.top.nom v.tv.past.p3.sg
-0.4329748	np.top.pl.nom cm
-0.6043849	np.unk cm
-1.688247	np.unk cnjcoo
-1.688247	np.unk guio
-0.5168111	np.unk np.unk
-1.086194	np.unk sent
-3.287888	num "да".postadv
-3.287888	num "е".cop.aor.p3.pl
-1.638062	num "е".cop.aor.p3.sg
-2.043608	num "лы".post
-3.287888	num "ғана".postadv
-1.019375	num abbr
-1.638062	num adj
-3.287888	num adv
-3.287888	num advl
-2.204026	num attr
-1.981245	num cm
-3.287888	num cnjcoo
-0.7704226	num guio
-3.287888	num lpar
-3.287888	num lquot
-2.116452	num n
-1.33018	num n.abl
-2.685834	num n.acc
-1.52296	num n.dat
-1.151828	num n.gen
-3.287888	num n.ins
-1.292906	num n.loc
-0.9771043	num n.nom
-2.886241	num n.pl.abl
-3.287888	num n.pl.acc
-3.287888	num n.pl.gen
-1.725353	num n.pl.loc
-2.204026	num n.pl.nom
-3.287888	num n.pl.px3sp.loc
-2.461167	num n.pl.px3sp.nom
-3.287888	num n.px2sg.nom
-3.287888	num n.px3sp.abl
-2.886241	num n.px3sp.acc
-2.886241	num n.px3sp.dat
-2.313836	num n.px3sp.gen
-3.287888	num n.px3sp.ins
-2.116452	num n.px3sp.loc
-0.9887677	num n.px3sp.nom
-2.886241	num n.sim
-1.926723	num num
-3.287888	num num.ord
-2.886241	num prn.itg.abl
-3.287888	num prn.itg.dat
-1.095427	num rpar
-3.287888	num rquot
-1.638062	num sent
-3.287888	num subst.sim
-3.287888	num sym
-0.4329748	num.itg adj
-2.076427	num.ord abbr
-1.674781	num.ord adj
-1.474374	num.ord attr
-2.076427	num.ord det.ind
-2.076427	num.ord guio
-1.474374	num.ord n.abl
-2.076427	num.ord n.dat
-0.7697849	num.ord n.gen
-1.102376	num.ord n.loc
-1.474374	num.ord n.nom
-2.076427	num.ord n.px3sp.abl
-1.102376	num.ord n.px3sp.loc
-0.9049913	num.ord n.px3sp.nom
-2.076427	num.ord np.ad.dat
-2.076427	num.ord np.ant.m.gen
-1.211126	num.percent n.px3sp.dat
-0.3844051	num.percent rpar
-1.211126	num.percent sent
-2.441261	post "да".postadv
-2.842908	post "е".cop.aor.p3.sg
-2.441261	post abbr
-1.003802	post adj
-2.842908	post adj.comp
-1.671472	post adv
-1.481743	post attr
-1.120434	post cm
-2.016187	post det.dem
-2.842908	post det.qnt
-2.441261	post det.ref
-2.441261	post ger.dat
-2.441261	post ger.nom
-2.842908	post ger_impf.px3sp.acc
-2.842908	post gna_perf
-2.842908	post gpr_impf
-1.536265	post gpr_past
-2.441261	post lpar
-2.016187	post n
-2.441261	post n.abl
-2.441261	post n.acc
-1.868857	post n.dat
-2.441261	post n.gen
-2.441261	post n.loc
-1.07798	post n.nom
-2.240854	post n.pl.dat
-2.441261	post n.pl.gen
-1.671472	post n.pl.nom
-2.842908	post n.pl.px1sg.dat
-2.842908	post n.pl.px3sp.acc
-2.842908	post n.pl.px3sp.dat
-2.842908	post n.pl.px3sp.gen
-2.016187	post n.pl.px3sp.nom
-2.842908	post n.px3sp.dat
-2.240854	post n.px3sp.nom
-2.441261	post np.ant.m.nom
-2.842908	post np.cog.mf.nom
-2.842908	post np.gen
-2.240854	post np.top
-2.842908	post np.top.acc
-2.441261	post np.top.dat
-2.842908	post np.top.ins
-2.240854	post np.top.loc
-1.759045	post np.top.nom
-1.481743	post num
-2.842908	post postadv
-2.441261	post prc_impf
-1.868857	post prc_perf
-2.842908	post prn.dem.dat
-2.842908	post prn.dem.loc
-2.842908	post prn.pers.dat
-2.441261	post prn.pers.gen
-2.240854	post prn.pers.nom
-2.842908	post prn.ref.px3sp.gen
-2.842908	post prn.ref.px3sp.nom
-2.016187	post rpar
-2.842908	post rquot
-1.759045	post sent
-2.842908	post subst.loc
-2.842908	post subst.px3sp.gen
-1.759045	post v.iv
-2.842908	post v.iv.aor.p3.pl
-2.016187	post v.iv.aor.p3.sg
-2.842908	post v.iv.coop
-2.240854	post v.iv.ifi.p3.sg
